{"learner":{"attributes":{"scikit_learn":"{\"_estimator_type\": \"classifier\"}"},"feature_names":[],"feature_types":[],"gradient_booster":{"model":{"cats":{"enc":[],"feature_segments":[],"sorted_idx":[]},"gbtree_model_param":{"num_parallel_tree":"1","num_trees":"100"},"iteration_indptr":[0,1,2,3,4,5,6,7,8,9,10,11,12,13,14,15,16,17,18,19,20,21,22,23,24,25,26,27,28,29,30,31,32,33,34,35,36,37,38,39,40,41,42,43,44,45,46,47,48,49,50,51,52,53,54,55,56,57,58,59,60,61,62,63,64,65,66,67,68,69,70,71,72,73,74,75,76,77,78,79,80,81,82,83,84,85,86,87,88,89,90,91,92,93,94,95,96,97,98,99,100],"tree_info":[0,0,0,0,0,0,0,0,0,0,0,0,0,0,0,0,0,0,0,0,0,0,0,0,0,0,0,0,0,0,0,0,0,0,0,0,0,0,0,0,0,0,0,0,0,0,0,0,0,0,0,0,0,0,0,0,0,0,0,0,0,0,0,0,0,0,0,0,0,0,0,0,0,0,0,0,0,0,0,0,0,0,0,0,0,0,0,0,0,0,0,0,0,0,0,0,0,0,0,0],"trees":[{"base_weights":[-2.5046464E-7,1.5027598E-1,-1.5453428E0,3.0614457E-1,-1.5451063E0,4.6761617E-1,-1.5448455E0,7.259203E-1,-1.172201E-1,6.4667064E-1,3.707166E-1,-2.8840658E-1,3.6919495E-1,1.6271707E-1,3.706879E-1,-1.5087003E-1,3.6913455E-1],"categories":[],"categories_nodes":[],"categories_segments":[],"categories_sizes":[],"default_left":[0,0,0,0,0,0,0,0,0,0,0,0,0,0,0,0,0],"id":0,"left_children":[1,3,-1,5,-1,7,-1,9,11,13,-1,15,-1,-1,-1,-1,-1],"loss_changes":[3.7447817E3,3.885138E3,0E0,4.0257634E3,0E0,6.7033276E2,0E0,1.2354407E2,3.141843E2,1.6304895E2,0E0,3.9405298E2,0E0,0E0,0E0,0E0,0E0],"parents":[2147483647,0,0,1,1,3,3,5,5,7,7,8,8,9,9,11,11],"right_children":[2,4,-1,6,-1,8,-1,10,12,14,-1,16,-1,-1,-1,-1,-1],"split_conditions":[1E0,1E0,-1.5453428E0,1E0,-1.5451063E0,4.040126E-1,-1.5448455E0,1E0,1E0,1E0,3.707166E-1,1E0,3.6919495E-1,1.6271707E-1,3.706879E-1,-1.5087003E-1,3.6913455E-1],"split_indices":[77,76,0,70,0,2,0,72,69,69,0,72,0,0,0,0,0],"split_type":[0,0,0,0,0,0,0,0,0,0,0,0,0,0,0,0,0],"sum_hessian":[4.83563E3,4.6995005E3,1.3612947E2,4.5661714E3,1.333291E2,4.4357983E3,1.3037314E2,3.0766816E3,1.3591167E3,2.664715E3,4.1196667E2,1.2066516E3,1.5246501E2,2.2655056E3,3.992094E2,1.0579205E3,1.4873117E2],"tree_param":{"num_deleted":"0","num_feature":"78","num_nodes":"17","size_leaf_vector":"1"}},{"base_weights":[6.640035E-2,1.6156349E-1,-5.653832E-1,2.641876E-1,-5.653921E-1,3.7497035E-1,-5.6540203E-1,7.177152E-1,5.478837E-2,6.5575624E-1,3.479774E-1,-6.0974903E-2,3.4772834E-1,1.7297906E-1,3.4793568E-1,-6.1078336E-2,3.4772724E-1],"categories":[],"categories_nodes":[],"categories_segments":[],"categories_sizes":[],"default_left":[0,0,0,0,0,0,0,0,0,0,0,0,0,0,0,0,0],"id":1,"left_children":[1,3,-1,5,-1,7,-1,9,11,13,-1,15,-1,-1,-1,-1,-1],"loss_changes":[8.7447876E2,9.4341626E2,0E0,1.01881177E3,0E0,4.463742E2,0E0,5.3068237E1,2.6907465E2,6.817633E1,0E0,3.3181125E2,0E0,0E0,0E0,0E0,0E0],"parents":[2147483647,0,0,1,1,3,3,5,5,7,7,8,8,9,9,11,11],"right_children":[2,4,-1,6,-1,8,-1,10,12,14,-1,16,-1,-1,-1,-1,-1],"split_conditions":[1E0,1E0,-5.653832E-1,1E0,-5.653921E-1,3.151062E-1,-5.6540203E-1,1E0,1E0,1E0,3.479774E-1,1E0,3.4772834E-1,1.7297906E-1,3.4793568E-1,-6.1078336E-2,3.4772724E-1],"split_indices":[77,76,0,70,0,2,0,72,72,69,0,69,0,0,0,0,0],"split_type":[0,0,0,0,0,0,0,0,0,0,0,0,0,0,0,0,0],"sum_hessian":[4.7073594E3,4.4893047E3,2.180546E2,4.275733E3,2.1357176E2,4.0668933E3,2.0883983E2,1.9636382E3,2.1032551E3,1.7244977E3,2.3914046E2,1.9045481E3,1.9870702E2,1.4922751E3,2.3222247E2,1.7059628E3,1.9858533E2],"tree_param":{"num_deleted":"0","num_feature":"78","num_nodes":"17","size_leaf_vector":"1"}},{"base_weights":[5.9099406E-2,1.3302399E-1,-4.4994584E-1,2.1253027E-1,-4.4993243E-1,2.981097E-1,-4.4991758E-1,4.7703376E-1,-2.2541447E-1,7.479916E-1,3.1181166E-1,-3.321214E-1,3.302682E-1,2.1037923E-1,3.3212575E-1,7.075951E-2,3.3271793E-1,-1.3685547E-1,3.3023068E-1],"categories":[],"categories_nodes":[],"categories_segments":[],"categories_sizes":[],"default_left":[0,0,0,0,0,0,0,0,0,0,0,0,0,0,0,0,0,0,0],"id":2,"left_children":[1,3,-1,5,-1,7,-1,9,11,13,15,17,-1,-1,-1,-1,-1,-1,-1],"loss_changes":[4.9992654E2,5.3788226E2,0E0,5.791846E2,0E0,3.5253043E2,0E0,1.2531213E2,1.3609E2,1.703601E1,1.05321884E2,1.5842572E2,0E0,0E0,0E0,0E0,0E0,0E0,0E0],"parents":[2147483647,0,0,1,1,3,3,5,5,7,7,8,8,9,9,10,10,11,11],"right_children":[2,4,-1,6,-1,8,-1,10,12,14,16,18,-1,-1,-1,-1,-1,-1,-1],"split_conditions":[1E0,1E0,-4.4994584E-1,1E0,-4.4993243E-1,1E0,-4.4991758E-1,2.4508262E-1,1E0,1E0,1E0,1E0,3.302682E-1,2.1037923E-1,3.3212575E-1,7.075951E-2,3.3271793E-1,-1.3685547E-1,3.3023068E-1],"split_indices":[77,76,0,70,0,1,0,2,72,72,69,69,0,0,0,0,0,0,0],"split_type":[0,0,0,0,0,0,0,0,0,0,0,0,0,0,0,0,0,0,0],"sum_hessian":[4.335311E3,4.139909E3,1.954016E2,3.9485132E3,1.9139612E2,3.7613452E3,1.8716812E2,2.8033406E3,9.580046E2,1.0605509E3,1.7427897E3,8.8736224E2,7.0642334E1,9.4104877E2,1.19502144E2,1.5923926E3,1.50397E2,8.1728143E2,7.008078E1],"tree_param":{"num_deleted":"0","num_feature":"78","num_nodes":"19","size_leaf_vector":"1"}},{"base_weights":[4.9132396E-2,-3.069977E-2,3.275643E-1,-1.15315795E-1,3.249731E-1,3.821506E-1,-2.699295E-1,4.385739E-1,-3.8250044E-1,-2.1218528E-1,-3.9422676E-1,4.8752162E-1,-3.7940207E-1,-1.4849392E-1,-3.9417198E-1,1.6109523E-1,-3.786686E-1,-2.3294901E-2,-3.9419773E-1],"categories":[],"categories_nodes":[],"categories_segments":[],"categories_sizes":[],"default_left":[0,0,0,0,0,0,0,0,0,0,0,0,0,0,0,0,0,0,0],"id":3,"left_children":[1,3,-1,5,-1,7,9,11,-1,13,-1,15,-1,17,-1,-1,-1,-1,-1],"loss_changes":[3.3283203E2,3.5024362E2,0E0,2.6570346E2,0E0,7.71549E1,1.5859483E2,6.6725525E1,0E0,1.7509569E2,0E0,6.745125E1,0E0,1.9498232E2,0E0,0E0,0E0,0E0,0E0],"parents":[2147483647,0,0,1,1,3,3,5,5,6,6,7,7,9,9,11,11,13,13],"right_children":[2,4,-1,6,-1,8,10,12,-1,14,-1,16,-1,18,-1,-1,-1,-1,-1],"split_conditions":[1E0,1E0,3.275643E-1,2.4232888E-1,3.249731E-1,1E0,1E0,1E0,-3.8250044E-1,1E0,-3.9422676E-1,1E0,-3.7940207E-1,1E0,-3.9417198E-1,1.6109523E-1,-3.786686E-1,-2.3294901E-2,-3.9419773E-1],"split_indices":[72,69,0,2,0,77,76,76,0,77,0,70,0,70,0,0,0,0,0],"split_type":[0,0,0,0,0,0,0,0,0,0,0,0,0,0,0,0,0,0,0],"sum_hessian":[3.996826E3,3.713494E3,2.8333218E2,3.4521614E3,2.6133246E2,8.1818774E2,2.6339736E3,7.919582E2,2.6229538E1,2.497083E3,1.3689072E2,7.705286E2,2.1429586E1,2.3616868E3,1.3539613E2,7.5001996E2,2.050868E1,2.2273643E3,1.3432262E2],"tree_param":{"num_deleted":"0","num_feature":"78","num_nodes":"19","size_leaf_vector":"1"}},{"base_weights":[3.9590083E-2,-2.3539526E-2,3.1922606E-1,-8.857308E-2,3.1733894E-1,7.4135296E-2,-4.0451E-1,1.21897504E-1,-3.6101562E-1,9.824629E-2,-5.0035906E-1,1.6941735E-1,-3.607093E-1,-6.873429E-2,5.3640914E-1,-7.2840405E-1,-2.278154E-1,6.576859E-2,-3.6058003E-1,4.514599E-3,-3.1765237E-1,1.9879459E-1,-2.2145327E-2,-1.6804352E-1,-2.672033E-1,-5.3212892E-2,-3.4876662E-1],"categories":[],"categories_nodes":[],"categories_segments":[],"categories_sizes":[],"default_left":[0,0,0,0,0,0,0,0,0,0,0,0,0,0,0,0,0,0,0,0,0,0,0,0,0,0,0],"id":4,"left_children":[1,3,-1,5,-1,7,9,11,-1,13,15,17,-1,19,21,23,25,-1,-1,-1,-1,-1,-1,-1,-1,-1,-1],"loss_changes":[2.4015453E2,2.4610347E2,0E0,1.6970654E2,0E0,1.3313666E2,5.412622E1,1.3247404E2,0E0,1.3244719E1,5.842314E1,1.389283E2,0E0,1.0932369E1,3.8949556E0,1.3502014E1,2.010926E1,0E0,0E0,0E0,0E0,0E0,0E0,0E0,0E0,0E0,0E0],"parents":[2147483647,0,0,1,1,3,3,5,5,6,6,7,7,9,9,10,10,11,11,13,13,14,14,15,15,16,16],"right_children":[2,4,-1,6,-1,8,10,12,-1,14,16,18,-1,20,22,24,26,-1,-1,-1,-1,-1,-1,-1,-1,-1,-1],"split_conditions":[1E0,1E0,3.1922606E-1,4.3784422E-1,3.1733894E-1,1E0,1.5897436E-1,1E0,-3.6101562E-1,2.2158155E-1,2.545305E-1,1E0,-3.607093E-1,6.483205E-1,5.0708216E-1,4.241198E-1,1E0,6.576859E-2,-3.6058003E-1,4.514599E-3,-3.1765237E-1,1.9879459E-1,-2.2145327E-2,-1.6804352E-1,-2.672033E-1,-5.3212892E-2,-3.4876662E-1],"split_indices":[72,69,0,2,0,77,0,70,0,4,4,76,0,5,5,5,76,0,0,0,0,0,0,0,0,0,0],"split_type":[0,0,0,0,0,0,0,0,0,0,0,0,0,0,0,0,0,0,0,0,0,0,0,0,0,0,0],"sum_hessian":[3.711802E3,3.4972764E3,2.1452556E2,3.299742E3,1.9753452E2,2.1785486E3,1.1211932E3,2.1009075E3,7.7641304E1,1.7952217E2,9.416711E2,2.0289718E3,7.193562E1,1.3059612E2,4.8926064E1,5.1177875E2,4.2989233E2,1.9586676E3,7.030413E1,1.2131521E2,9.280904E0,4.0468353E1,8.457713E0,2.5344128E2,2.5833746E2,4.090116E2,2.088074E1],"tree_param":{"num_deleted":"0","num_feature":"78","num_nodes":"27","size_leaf_vector":"1"}},{"base_weights":[3.316736E-2,-1.5894467E-2,3.1312346E-1,-6.519568E-2,3.1169754E-1,-2.6836121E-2,-3.478412E-1,1.2596738E-2,-3.4786153E-1,5.4209065E-2,-3.4539726E-1,5.8036245E-2,-5.9153404E-2],"categories":[],"categories_nodes":[],"categories_segments":[],"categories_sizes":[],"default_left":[0,0,0,0,0,0,0,0,0,0,0,0,0],"id":5,"left_children":[1,3,-1,5,-1,7,-1,9,-1,11,-1,-1,-1],"loss_changes":[1.74064E2,1.7423111E2,0E0,1.3430232E2,0E0,1.3816068E2,0E0,1.4487015E2,0E0,1.0111625E2,0E0,0E0,0E0],"parents":[2147483647,0,0,1,1,3,3,5,5,7,7,9,9],"right_children":[2,4,-1,6,-1,8,-1,10,-1,12,-1,-1,-1],"split_conditions":[1E0,1E0,3.1312346E-1,1E0,3.1169754E-1,1E0,-3.478412E-1,1E0,-3.4786153E-1,4.1825172E-1,-3.4539726E-1,5.8036245E-2,-5.9153404E-2],"split_indices":[72,69,0,77,0,70,0,76,0,5,0,0,0],"split_type":[0,0,0,0,0,0,0,0,0,0,0,0,0],"sum_hessian":[3.5093809E3,3.3478335E3,1.6154738E2,3.1992515E3,1.4858215E2,3.0918904E3,1.0736098E2,2.9888289E3,1.0306148E2,2.8865818E3,1.0224722E2,1.8577766E3,1.0288052E3],"tree_param":{"num_deleted":"0","num_feature":"78","num_nodes":"13","size_leaf_vector":"1"}},{"base_weights":[2.5237251E-2,-1.299136E-2,3.0847222E-1,-5.065577E-2,3.073429E-1,4.7958624E-1,-1.16360456E-1,9.3724537E-1,3.9776438E-1,-8.7068796E-2,-3.320865E-1,9.7070926E-1,3.4811303E-1,5.001256E-1,6.494974E-2,-5.707597E-2,-3.3202225E-1,3.0814928E-1,1.9459227E-1,-1.2533289E-1,2.1511903E-1,1.5703326E-1,-2.5307474E-1,3.807308E-2,-6.004243E-1,-7.727899E-3,-3.3024037E-1],"categories":[],"categories_nodes":[],"categories_segments":[],"categories_sizes":[],"default_left":[0,0,0,0,0,0,0,0,0,0,0,0,0,0,0,0,0,0,0,0,0,0,0,0,0,0,0],"id":6,"left_children":[1,3,-1,5,-1,7,9,11,13,15,-1,17,19,21,23,25,-1,-1,-1,-1,-1,-1,-1,-1,-1,-1,-1],"loss_changes":[1.2763252E2,1.25371605E2,0E0,1.0790838E2,0E0,1.2415375E1,7.984903E1,6.6867447E-1,9.896343E0,8.1811935E1,0E0,2.02034E-1,1.5156193E0,7.420887E0,9.178271E0,8.501033E1,0E0,0E0,0E0,0E0,0E0,0E0,0E0,0E0,0E0,0E0,0E0],"parents":[2147483647,0,0,1,1,3,3,5,5,6,6,7,7,8,8,9,9,11,11,12,12,13,13,14,14,15,15],"right_children":[2,4,-1,6,-1,8,10,12,14,16,-1,18,20,22,24,26,-1,-1,-1,-1,-1,-1,-1,-1,-1,-1,-1],"split_conditions":[1E0,1E0,3.0847222E-1,1.5145555E-1,3.073429E-1,4.602675E-2,1E0,5.2165115E-1,5.2139735E-1,1E0,-3.320865E-1,3.9015108E-1,5.5382437E-1,1E0,5.641026E-1,1E0,-3.3202225E-1,3.0814928E-1,1.9459227E-1,-1.2533289E-1,2.1511903E-1,1.5703326E-1,-2.5307474E-1,3.807308E-2,-6.004243E-1,-7.727899E-3,-3.3024037E-1],"split_indices":[72,69,0,2,0,2,77,5,10,70,0,3,5,77,7,76,0,0,0,0,0,0,0,0,0,0,0],"split_type":[0,0,0,0,0,0,0,0,0,0,0,0,0,0,0,0,0,0,0,0,0,0,0,0,0,0,0],"sum_hessian":[3.327319E3,3.2061082E3,1.21211E2,3.0947085E3,1.1139968E2,3.4050522E2,2.7542034E3,5.0058014E1,2.9044724E2,2.6761577E3,7.8045494E1,4.6754566E1,3.303447E0,2.2174432E2,6.87029E1,2.6007158E3,7.5441986E1,3.791859E1,8.835975E0,1.0309669E0,2.2724802E0,2.1856187E2,3.1824496E0,6.761406E1,1.0888444E0,2.525951E3,7.476485E1],"tree_param":{"num_deleted":"0","num_feature":"78","num_nodes":"27","size_leaf_vector":"1"}},{"base_weights":[1.9452821E-2,1.4086735E-1,-2.44717E-1,1.6372553E-1,-3.179656E-1,-6.417549E-1,-6.6933386E-2,1.8696178E-1,-3.18249E-1,-5.292779E-1,-1.1190354E0,3.0639043E-2,-4.7478545E-1,2.098301E-1,-3.1855103E-1,-4.2962056E-1,-1.169047E0,-7.550313E-1,-9.982754E-1,6.385406E-2,-3.0819976E-1,-2.3541826E-1,-7.768117E-1,2.9534093E-1,-1.3387778E-1,-2.2208184E-1,-6.680389E-1,1.9259599E-1,-1.3096527E0,2.7706867E-1,-1.1052127E0,1.7060101E-1,-2.8466904E-1,-7.236595E-1,3.2450307E-2,-9.325939E-1,1.8850358E-1,1.2700787E-1,-3.5425924E-2,2.662317E-1,-5.1983885E-2,1.27443E-1,-9.79808E-2,-1.4141674E-1,-3.5183632E-1,1.759308E-1,-7.142913E-2,-2.9395026E-1,-6.51001E-1,-2.4841972E-1,2.2641034E-1,1.3990097E-1,-3.500143E-1,1.0825918E-1,-6.9298506E-2,-1.8985888E-1,-8.598807E-3,-2.5113165E-1,1.6109113E-1,-1.17468044E-1,1.7696016E-1,-3.092306E-1,1.0634951E-1,-2.8000775E-1,1.505715E-1],"categories":[],"categories_nodes":[],"categories_segments":[],"categories_sizes":[],"default_left":[0,0,0,0,0,0,0,0,0,0,0,0,0,0,0,0,0,0,0,0,0,0,0,0,0,0,0,0,0,0,0,0,0,0,0,0,0,0,0,0,0,0,0,0,0,0,0,0,0,0,0,0,0,0,0,0,0,0,0,0,0,0,0,0,0],"id":7,"left_children":[1,3,5,7,-1,9,11,13,-1,15,17,19,21,23,-1,25,27,-1,29,31,-1,33,35,37,39,41,43,45,47,49,51,53,55,57,59,61,63,-1,-1,-1,-1,-1,-1,-1,-1,-1,-1,-1,-1,-1,-1,-1,-1,-1,-1,-1,-1,-1,-1,-1,-1,-1,-1,-1,-1],"loss_changes":[1.0238271E2,6.0195663E1,7.090818E1,6.1285053E1,0E0,1.609053E1,2.7687925E1,6.0414978E1,0E0,1.5653557E1,7.340004E0,1.981772E1,9.526888E0,6.089762E1,0E0,1.077821E1,6.679474E0,0E0,7.859894E0,2.035889E1,0E0,1.0010263E1,9.040134E0,8.782533E1,1.6782188E1,8.22229E0,9.598194E0,8.2048154E-1,6.544491E0,3.3087308E0,5.5025444E0,3.206385E1,1.1425326E1,4.3244963E0,1.2111187E1,6.8001366E0,3.640811E0,0E0,0E0,0E0,0E0,0E0,0E0,0E0,0E0,0E0,0E0,0E0,0E0,0E0,0E0,0E0,0E0,0E0,0E0,0E0,0E0,0E0,0E0,0E0,0E0,0E0,0E0,0E0,0E0],"parents":[2147483647,0,0,1,1,2,2,3,3,5,5,6,6,7,7,9,9,10,10,11,11,12,12,13,13,15,15,16,16,18,18,19,19,21,21,22,22,23,23,24,24,25,25,26,26,27,27,28,28,29,29,30,30,31,31,32,32,33,33,34,34,35,35,36,36],"right_children":[2,4,6,8,-1,10,12,14,-1,16,18,20,22,24,-1,26,28,-1,30,32,-1,34,36,38,40,42,44,46,48,50,52,54,56,58,60,62,64,-1,-1,-1,-1,-1,-1,-1,-1,-1,-1,-1,-1,-1,-1,-1,-1,-1,-1,-1,-1,-1,-1,-1,-1,-1,-1,-1,-1],"split_conditions":[1E0,1E0,1E0,1E0,-3.179656E-1,1E0,1E0,1E0,-3.18249E-1,7.4759823E-1,9.8023064E-2,1E0,5.703057E-1,1E0,-3.1855103E-1,4.220963E-1,1.6518678E-1,-7.550313E-1,1.5742615E-1,1E0,-3.0819976E-1,2.2775947E-1,1.6348219E-1,1E0,6.2942564E-2,1.5930931E-1,1E0,1.3333334E-1,8.6206895E-1,7.692308E-2,4.6551725E-1,1E0,2.545305E-1,5.3187776E-1,4.508261E-1,1E0,2.6117793E-1,1.2700787E-1,-3.5425924E-2,2.662317E-1,-5.1983885E-2,1.27443E-1,-9.79808E-2,-1.4141674E-1,-3.5183632E-1,1.759308E-1,-7.142913E-2,-2.9395026E-1,-6.51001E-1,-2.4841972E-1,2.2641034E-1,1.3990097E-1,-3.500143E-1,1.0825918E-1,-6.9298506E-2,-1.8985888E-1,-8.598807E-3,-2.5113165E-1,1.6109113E-1,-1.17468044E-1,1.7696016E-1,-3.092306E-1,1.0634951E-1,-2.8000775E-1,1.505715E-1],"split_indices":[1,77,12,76,0,75,75,70,0,10,4,70,10,71,0,5,3,0,5,74,0,4,9,74,2,3,74,0,6,11,6,73,4,10,2,27,4,0,0,0,0,0,0,0,0,0,0,0,0,0,0,0,0,0,0,0,0,0,0,0,0,0,0,0,0],"split_type":[0,0,0,0,0,0,0,0,0,0,0,0,0,0,0,0,0,0,0,0,0,0,0,0,0,0,0,0,0,0,0,0,0,0,0,0,0,0,0,0,0,0,0,0,0,0,0,0,0,0,0,0,0,0,0,0,0,0,0,0,0,0,0,0,0],"sum_hessian":[3.189998E3,2.185837E3,1.0041611E3,2.145851E3,3.9985928E1,3.0976468E2,6.943964E2,2.1067227E3,3.9128307E1,2.5239388E2,5.7370792E1,5.610892E2,1.3330722E2,2.0696545E3,3.7068066E1,2.1982335E2,3.2570534E1,2.9845884E0,5.4386204E1,5.44921E2,1.6168152E1,7.536058E1,5.7946632E1,1.6574417E3,4.1221295E2,1.1855494E2,1.012684E2,3.0138905E0,2.9556644E1,4.084397E0,5.0301807E1,4.1754446E2,1.27376564E2,2.6095337E1,4.9265247E1,4.992384E1,8.022791E0,1.2655405E3,3.9190118E2,1.4512715E1,3.9770023E2,1.6064632E1,1.0249031E2,7.426768E1,2.7000725E1,1.385413E0,1.6284775E0,2.2912088E1,6.644555E0,1.0111454E0,3.0732515E0,1.646491E0,4.8655315E1,2.8338666E2,1.341578E2,5.334714E1,7.402942E1,2.4249086E1,1.846249E0,2.8149958E1,2.1115292E1,4.6570744E1,3.353097E0,1.319894E0,6.702897E0],"tree_param":{"num_deleted":"0","num_feature":"78","num_nodes":"65","size_leaf_vector":"1"}},{"base_weights":[1.5922004E-2,-1.1369371E-2,3.0351382E-1,-3.779783E-2,3.0266017E-1,-1.8214395E-2,-3.1703046E-1,1.3512748E-3,-3.161162E-1,2.0030893E-2,-3.139784E-1,2.5164012E-2,-8.258265E-2],"categories":[],"categories_nodes":[],"categories_segments":[],"categories_sizes":[],"default_left":[0,0,0,0,0,0,0,0,0,0,0,0,0],"id":8,"left_children":[1,3,-1,5,-1,7,-1,9,-1,11,-1,-1,-1],"loss_changes":[8.412287E1,8.129013E1,0E0,5.8614475E1,0E0,5.8430676E1,0E0,5.5446968E1,0E0,5.2493526E1,0E0,0E0,0E0],"parents":[2147483647,0,0,1,1,3,3,5,5,7,7,9,9],"right_children":[2,4,-1,6,-1,8,-1,10,-1,12,-1,-1,-1],"split_conditions":[1E0,1E0,3.0351382E-1,1E0,3.0266017E-1,1E0,-3.1703046E-1,1E0,-3.161162E-1,5.3035206E-1,-3.139784E-1,2.5164012E-2,-8.258265E-2],"split_indices":[72,69,0,77,0,76,0,70,0,5,0,0,0],"split_type":[0,0,0,0,0,0,0,0,0,0,0,0,0],"sum_hessian":[3.0940042E3,3.0124316E3,8.157235E1,2.937306E3,7.5125755E1,2.8829175E3,5.4388474E1,2.8304358E3,5.248178E1,2.7818306E3,4.8605198E1,2.2878772E3,4.939533E2],"tree_param":{"num_deleted":"0","num_feature":"78","num_nodes":"13","size_leaf_vector":"1"}},{"base_weights":[1.1831889E-2,-9.014907E-3,3.0041432E-1,-2.8965678E-2,2.9960623E-1,1.9341011E-1,-1.0585866E-1,2.6550305E-1,-1.666133E-1,-2.5313947E-1,6.0380236E-3,8.932469E-1,2.2996466E-1,-2.4379592E-3,-7.416121E-1,-1.4777209E-1,-4.7165886E-1,2.2713454E-2,-3.0283615E-1,2.9175797E-1,1.4735426E-1,8.922497E-2,-1.3416044E-2,-3.0883338E-2,1.3832188E-1,2.2662728E-1,-2.730219E-1,-1.7458698E-2,-1.6171919E-1,-1.159374E-1,-2.472873E-1,1.1858402E-2,-3.0105418E-1],"categories":[],"categories_nodes":[],"categories_segments":[],"categories_sizes":[],"default_left":[0,0,0,0,0,0,0,0,0,0,0,0,0,0,0,0,0,0,0,0,0,0,0,0,0,0,0,0,0,0,0,0,0],"id":9,"left_children":[1,3,-1,5,-1,7,9,11,13,15,17,19,21,23,25,27,29,31,-1,-1,-1,-1,-1,-1,-1,-1,-1,-1,-1,-1,-1,-1,-1],"loss_changes":[6.1957348E1,5.9176495E1,0E0,4.9366383E1,0E0,1.9298767E1,3.5352165E1,1.3591766E1,1.1739782E1,2.125393E1,2.0680729E1,5.675163E-1,1.08831005E1,4.6016064E0,7.6536407E0,2.192028E1,8.719719E0,2.0766815E1,0E0,0E0,0E0,0E0,0E0,0E0,0E0,0E0,0E0,0E0,0E0,0E0,0E0,0E0,0E0],"parents":[2147483647,0,0,1,1,3,3,5,5,6,6,7,7,8,8,9,9,10,10,11,11,12,12,13,13,14,14,15,15,16,16,17,17],"right_children":[2,4,-1,6,-1,8,10,12,14,16,18,20,22,24,26,28,30,32,-1,-1,-1,-1,-1,-1,-1,-1,-1,-1,-1,-1,-1,-1,-1],"split_conditions":[1E0,1E0,3.0041432E-1,2.7419356E-1,2.9960623E-1,4.9676245E-1,1E0,4.602675E-2,1.0976179E-1,1E0,1E0,3.9015108E-1,1E0,4.3205127E-1,3.4323144E-1,8.965517E-1,8.7931037E-1,1E0,-3.0283615E-1,2.9175797E-1,1.4735426E-1,8.922497E-2,-1.3416044E-2,-3.0883338E-2,1.3832188E-1,2.2662728E-1,-2.730219E-1,-1.7458698E-2,-1.6171919E-1,-1.159374E-1,-2.472873E-1,1.1858402E-2,-3.0105418E-1],"split_indices":[72,69,0,2,0,5,12,2,9,1,77,3,75,0,10,6,6,76,0,0,0,0,0,0,0,0,0,0,0,0,0,0,0],"split_type":[0,0,0,0,0,0,0,0,0,0,0,0,0,0,0,0,0,0,0,0,0,0,0,0,0,0,0,0,0,0,0,0,0],"sum_hessian":[3.001983E3,2.9410154E3,6.0967377E1,2.884871E3,5.614423E1,7.4083856E2,2.1440327E3,6.1745807E2,1.2338044E2,9.2511475E2,1.218918E3,3.1790024E1,5.856681E2,9.675804E1,2.6622398E1,6.252858E2,2.998289E2,1.2001873E3,1.873069E1,2.536894E1,6.421083E0,4.7013773E2,1.1553034E2,8.015528E1,1.6602762E1,2.340364E0,2.4282036E1,5.0974197E2,1.15543884E2,2.431712E2,5.6657677E1,1.1817854E3,1.8401857E1],"tree_param":{"num_deleted":"0","num_feature":"78","num_nodes":"33","size_leaf_vector":"1"}},{"base_weights":[1.121762E-2,-4.4779973E-3,2.9742792E-1,-1.9360691E-2,2.9659483E-1,-6.113259E-3,-3.064527E-1,7.3368927E-3,-3.0579418E-1,6.773648E-2,-2.3119387E-1,4.7675736E-2,-5.7888728E-2,1.11495174E-1,-8.5963696E-2],"categories":[],"categories_nodes":[],"categories_segments":[],"categories_sizes":[],"default_left":[0,0,0,0,0,0,0,0,0,0,0,0,0,0,0],"id":10,"left_children":[1,3,-1,5,-1,7,-1,9,-1,11,13,-1,-1,-1,-1],"loss_changes":[4.545137E1,4.3006798E1,0E0,3.804857E1,0E0,3.8574818E1,0E0,4.0269047E1,0E0,5.3045868E1,1.8951614E1,0E0,0E0,0E0,0E0],"parents":[2147483647,0,0,1,1,3,3,5,5,7,7,9,9,10,10],"right_children":[2,4,-1,6,-1,8,-1,10,-1,12,14,-1,-1,-1,-1],"split_conditions":[1E0,1E0,2.9742792E-1,1E0,2.9659483E-1,1E0,-3.064527E-1,1E0,-3.0579418E-1,1E0,8.979578E-2,4.7675736E-2,-5.7888728E-2,1.11495174E-1,-8.5963696E-2],"split_indices":[72,69,0,70,0,77,0,73,0,75,3,0,0,0,0],"split_type":[0,0,0,0,0,0,0,0,0,0,0,0,0,0,0],"sum_hessian":[2.9529805E3,2.9074207E3,4.5559715E1,2.8654602E3,4.1960377E1,2.8290688E3,3.6391457E1,2.7929849E3,3.6083878E1,2.229227E3,5.637579E2,1.6518595E3,5.773677E2,4.6929306E1,5.168286E2],"tree_param":{"num_deleted":"0","num_feature":"78","num_nodes":"15","size_leaf_vector":"1"}},{"base_weights":[9.206348E-3,7.121301E-2,-2.3438835E-1,1.6685657E-1,-2.1836865E-1,-1.4904936E-1,-5.556455E-1,3.2908934E-1,-1.5301642E-1,2.2261873E-2,-3.9556146E-1,7.64172E-1,-1.6963422E-1,1.1452698E-2,-7.294506E-1,8.174783E-1,-1.2967905E-1,-3.3534583E-1,1.6980965E-2,-1.8561299E-1,2.1345292E-1,3.7581953E-1,-4.390491E-1,2.795427E-1,9.6807005E-3,-6.493078E-2,-3.18546E-1,5.309859E-1,-4.2933023E-1,-1.7127541E0,-5.3121436E-1,9.470606E-1,-3.0640697E-1,-3.8738884E-2,-3.7877193E-1,1.5602478E-1,-3.9275372E-1,3.0790886E-1,-1.3471518E-1,-1.3259187E-1,-1.1452745E0,4.9209636E-1,-1.636275E-1,-2.0388325E-1,6.771116E-1,-7.635501E-1,-4.2303354E-1,-1.006725E-1,4.5124787E-1,-4.5756578E-1,-6.563475E-2,-1.2575787E-1,6.7271703E-1,5.8815163E-1,-1.0141636E0,1.18226655E-1,-2.0459733E0,5.855232E-1,-6.275286E-1,3.169688E-1,-3.0003673E-1,-1.9161598E-1,3.7540244E-3,-1.9374709E-1,-3.991458E-2,-2.2550444E-1,1.0657674E-1,-8.7789975E-2,-2.0598488E-1,1.076229E-1,-4.9136683E-1,-1.7402904E-1,7.538725E-3,1.0181705E-1,-8.174535E-2,-4.7717848E-1,8.0818176E-2,1.5664749E-1,-2.389722E-1,-1.082542E-1,1.4161626E-1,6.9208235E-2,-3.9672506E-1,2.5621092E-1,5.5891834E-2,-2.0950705E-1,-9.398234E-2,-1.9817198E-2,-1.824805E-1,-5.5316288E-2,2.5257424E-1,1.6109375E-2,-1.8085447E-1,1.7254126E-1,-5.961432E-2,2.482732E-1,-2.956008E-2,2.8762648E-1,-1.9818534E-1,-5.1771796E-1,-1.0869499E-1,-2.0082872E-1,2.393375E-1,-6.8886817E-1,-6.2490784E-2,-1.6824137E-1,2.8482544E-1,-3.1113115E-1,-1.0993803E-1],"categories":[],"categories_nodes":[],"categories_segments":[],"categories_sizes":[],"default_left":[0,0,0,0,0,0,0,0,0,0,0,0,0,0,0,0,0,0,0,0,0,0,0,0,0,0,0,0,0,0,0,0,0,0,0,0,0,0,0,0,0,0,0,0,0,0,0,0,0,0,0,0,0,0,0,0,0,0,0,0,0,0,0,0,0,0,0,0,0,0,0,0,0,0,0,0,0,0,0,0,0,0,0,0,0,0,0,0,0,0,0,0,0,0,0,0,0,0,0,0,0,0,0,0,0,0,0,0,0],"id":11,"left_children":[1,3,5,7,9,11,13,15,17,19,21,23,25,27,29,31,33,35,37,39,41,43,45,-1,-1,47,49,51,53,55,57,59,-1,61,63,65,67,69,71,73,75,77,79,81,83,-1,85,87,89,91,93,-1,95,97,99,101,103,105,107,-1,-1,-1,-1,-1,-1,-1,-1,-1,-1,-1,-1,-1,-1,-1,-1,-1,-1,-1,-1,-1,-1,-1,-1,-1,-1,-1,-1,-1,-1,-1,-1,-1,-1,-1,-1,-1,-1,-1,-1,-1,-1,-1,-1,-1,-1,-1,-1,-1,-1],"loss_changes":[4.4003746E1,6.434985E1,1.6123093E1,9.066287E1,2.460901E1,8.935157E0,1.2200851E1,2.597544E2,1.8239262E1,9.801694E0,1.1313206E1,1.2591305E0,7.1344204E0,7.098677E0,1.754926E1,1.347475E2,1.3540777E1,8.069271E0,1.3518669E1,5.8630953E0,1.3572903E1,3.3298707E0,9.550335E0,0E0,0E0,5.039731E0,6.622223E0,2.1967812E0,1.0584267E1,9.661255E0,8.999931E0,1.12997375E2,0E0,1.3522183E1,1.040863E1,5.767026E0,7.286064E0,1.0969874E1,1.4353669E1,7.5637126E0,4.2451425E0,3.286337E0,7.1054916E0,3.7165856E0,9.0516233E-1,0E0,9.266354E0,4.4226227E0,4.55377E0,9.088541E0,5.9366155E0,0E0,1.6051545E0,3.7615068E0,4.4886484E0,2.3124406E0,5.553604E0,3.4064505E0,7.572056E0,0E0,0E0,0E0,0E0,0E0,0E0,0E0,0E0,0E0,0E0,0E0,0E0,0E0,0E0,0E0,0E0,0E0,0E0,0E0,0E0,0E0,0E0,0E0,0E0,0E0,0E0,0E0,0E0,0E0,0E0,0E0,0E0,0E0,0E0,0E0,0E0,0E0,0E0,0E0,0E0,0E0,0E0,0E0,0E0,0E0,0E0,0E0,0E0,0E0,0E0],"parents":[2147483647,0,0,1,1,2,2,3,3,4,4,5,5,6,6,7,7,8,8,9,9,10,10,11,11,12,12,13,13,14,14,15,15,16,16,17,17,18,18,19,19,20,20,21,21,22,22,25,25,26,26,27,27,28,28,29,29,30,30,31,31,33,33,34,34,35,35,36,36,37,37,38,38,39,39,40,40,41,41,42,42,43,43,44,44,46,46,47,47,48,48,49,49,50,50,52,52,53,53,54,54,55,55,56,56,57,57,58,58],"right_children":[2,4,6,8,10,12,14,16,18,20,22,24,26,28,30,32,34,36,38,40,42,44,46,-1,-1,48,50,52,54,56,58,60,-1,62,64,66,68,70,72,74,76,78,80,82,84,-1,86,88,90,92,94,-1,96,98,100,102,104,106,108,-1,-1,-1,-1,-1,-1,-1,-1,-1,-1,-1,-1,-1,-1,-1,-1,-1,-1,-1,-1,-1,-1,-1,-1,-1,-1,-1,-1,-1,-1,-1,-1,-1,-1,-1,-1,-1,-1,-1,-1,-1,-1,-1,-1,-1,-1,-1,-1,-1,-1],"split_conditions":[1E0,1E0,5.200629E-1,1E0,3.290166E-1,6.2942564E-2,2.1393989E-1,1E0,2.2158155E-1,2.4835256E-1,1.1290322E-1,3.974359E-1,1E0,7.9310346E-1,1.556837E-1,1E0,4.9331236E-1,8.979578E-2,3.2307693E-1,1E0,4.8076922E-1,6.896552E-1,2.7586207E-1,2.795427E-1,9.6807005E-3,1E0,2.2981878E-1,1.1053813E-2,4.1834062E-1,7.0689654E-1,1.5384616E-1,1E0,-3.0640697E-1,1.0591226E-2,4.3060794E-2,1.5196277E-1,8.6206895E-1,6.7098343E-1,1E0,7.241379E-1,5.606987E-1,9.655172E-1,3.3333334E-1,1E0,1E0,-7.635501E-1,3.2140046E-1,4.9331236E-1,7.413793E-1,3.1441048E-1,1.3929935E-1,-1.2575787E-1,1E0,3.0769232E-1,5.868996E-1,4.9754225E-2,8.069869E-1,7.692308E-2,2.948718E-1,3.169688E-1,-3.0003673E-1,-1.9161598E-1,3.7540244E-3,-1.9374709E-1,-3.991458E-2,-2.2550444E-1,1.0657674E-1,-8.7789975E-2,-2.0598488E-1,1.076229E-1,-4.9136683E-1,-1.7402904E-1,7.538725E-3,1.0181705E-1,-8.174535E-2,-4.7717848E-1,8.0818176E-2,1.5664749E-1,-2.389722E-1,-1.082542E-1,1.4161626E-1,6.9208235E-2,-3.9672506E-1,2.5621092E-1,5.5891834E-2,-2.0950705E-1,-9.398234E-2,-1.9817198E-2,-1.824805E-1,-5.5316288E-2,2.5257424E-1,1.6109375E-2,-1.8085447E-1,1.7254126E-1,-5.961432E-2,2.482732E-1,-2.956008E-2,2.8762648E-1,-1.9818534E-1,-5.1771796E-1,-1.0869499E-1,-2.0082872E-1,2.393375E-1,-6.8886817E-1,-6.2490784E-2,-1.6824137E-1,2.8482544E-1,-3.1113115E-1,-1.0993803E-1],"split_indices":[71,74,2,73,5,2,3,75,4,4,2,11,68,6,4,76,2,3,0,53,0,6,6,0,0,29,4,9,10,6,7,70,0,9,9,5,6,5,12,6,10,6,7,14,68,0,2,2,6,10,3,0,13,11,10,9,10,7,11,0,0,0,0,0,0,0,0,0,0,0,0,0,0,0,0,0,0,0,0,0,0,0,0,0,0,0,0,0,0,0,0,0,0,0,0,0,0,0,0,0,0,0,0,0,0,0,0,0,0],"split_type":[0,0,0,0,0,0,0,0,0,0,0,0,0,0,0,0,0,0,0,0,0,0,0,0,0,0,0,0,0,0,0,0,0,0,0,0,0,0,0,0,0,0,0,0,0,0,0,0,0,0,0,0,0,0,0,0,0,0,0,0,0,0,0,0,0,0,0,0,0,0,0,0,0,0,0,0,0,0,0,0,0,0,0,0,0,0,0,0,0,0,0,0,0,0,0,0,0,0,0,0,0,0,0,0,0,0,0,0,0],"sum_hessian":[2.9111836E3,2.3210671E3,5.9011646E2,1.745112E3,5.759551E2,4.6741574E2,1.227007E2,1.1578477E3,5.872644E2,2.44625E2,3.313301E2,9.507431E0,4.579083E2,2.9002916E1,9.3697784E1,5.604403E2,5.974073E2,2.8288528E2,3.0437915E2,1.1721294E2,1.27412056E2,1.7274487E1,3.140556E2,7.513408E0,1.9940226E0,2.6970694E2,1.8820135E2,1.3218343E1,1.5784574E1,1.4438594E1,7.925919E1,5.239992E2,3.6441147E1,4.3848013E2,1.5892715E2,2.9413006E1,2.5347229E2,1.0396392E2,2.0041522E2,1.1215458E2,5.058355E0,7.309415E1,5.431791E1,6.018281E0,1.1256205E1,1.1783557E0,3.1287726E2,2.5299387E2,1.6713068E1,1.2092328E2,6.7278076E1,1.4616493E0,1.1756694E1,5.759183E0,1.0025391E1,2.3224325E0,1.211616E1,5.889756E0,7.336943E1,4.9653345E2,2.7465748E1,3.360646E1,4.0487366E2,7.5378105E1,8.354906E1,4.7947907E0,2.4618216E1,1.9054756E2,6.292472E1,1.0211187E2,1.8520484E0,5.223665E1,1.4817857E2,2.5315804E1,8.6838776E1,3.7526937E0,1.3056608E0,7.200914E1,1.0850099E0,4.1786133E1,1.25317745E1,4.9059525E0,1.1123283E0,7.7297335E0,3.5264716E0,8.765015E1,2.2522711E2,2.3790053E2,1.5093337E1,6.562893E0,1.0150174E1,2.689775E1,9.4025536E1,1.0998597E1,5.627948E1,9.729969E0,2.0267246E0,4.6202497E0,1.1389332E0,4.0055017E0,6.019889E0,1.0825773E0,1.2398553E0,1.0444323E1,1.6718385E0,1.2887788E0,4.6009774E0,2.7404142E1,4.596529E1],"tree_param":{"num_deleted":"0","num_feature":"78","num_nodes":"109","size_leaf_vector":"1"}},{"base_weights":[1.3004357E-2,2.6654908E-2,-3.060328E-1,3.7073802E-2,-3.0001417E-1,9.039145E-2,-1.5491907E-1,1.7779414E-1,-1.4344932E-1,1.1100246E-1,-2.1377295E-1,3.4610197E-1,-1.0280145E-1,4.520114E-1,-1.8037198E-1,5.83586E-1,8.096892E-3,-7.5724706E-2,-3.36988E-1,3.0570674E-1,-2.6485773E-2,1.20913096E-1,-4.5349624E-2,2.6802891E-1,6.962235E-2,-1.2843766E-2,-8.7350406E-2,-1.4114235E-1,2.2366723E-1,-5.444696E-1,1.919559E-2,-6.196722E-2,4.5130547E-2,-2.4229033E-1,-8.04138E-2],"categories":[],"categories_nodes":[],"categories_segments":[],"categories_sizes":[],"default_left":[0,0,0,0,0,0,0,0,0,0,0,0,0,0,0,0,0,0,0,0,0,0,0,0,0,0,0,0,0,0,0,0,0,0,0],"id":12,"left_children":[1,3,-1,5,-1,7,9,11,13,15,17,19,21,23,25,27,29,31,33,-1,-1,-1,-1,-1,-1,-1,-1,-1,-1,-1,-1,-1,-1,-1,-1],"loss_changes":[4.0501507E1,3.034777E1,0E0,2.8738358E1,0E0,4.4924118E1,9.57453E0,7.557616E1,1.3234588E1,5.4052815E0,8.47946E0,2.924136E2,1.4751675E1,3.2114549E0,8.583965E0,3.7445083E0,9.52686E0,7.046673E0,8.346657E0,0E0,0E0,0E0,0E0,0E0,0E0,0E0,0E0,0E0,0E0,0E0,0E0,0E0,0E0,0E0,0E0],"parents":[2147483647,0,0,1,1,3,3,5,5,6,6,7,7,8,8,9,9,10,10,11,11,12,12,13,13,14,14,15,15,16,16,17,17,18,18],"right_children":[2,4,-1,6,-1,8,10,12,14,16,18,20,22,24,26,28,30,32,34,-1,-1,-1,-1,-1,-1,-1,-1,-1,-1,-1,-1,-1,-1,-1,-1],"split_conditions":[1E0,1E0,-3.060328E-1,1E0,-3.0001417E-1,1E0,2.4429584E-1,1E0,1.1250983E-1,1.816156E-2,3.0064103E-1,1E0,1.5145555E-1,2.1428572E-1,3.5026306E-1,1.02564104E-1,1.9396465E-2,2.1334432E-1,2.5498588E-2,3.0570674E-1,-2.6485773E-2,1.20913096E-1,-4.5349624E-2,2.6802891E-1,6.962235E-2,-1.2843766E-2,-8.7350406E-2,-1.4114235E-1,2.2366723E-1,-5.444696E-1,1.919559E-2,-6.196722E-2,4.5130547E-2,-2.4229033E-1,-8.04138E-2],"split_indices":[77,76,0,71,0,74,2,73,2,9,0,75,2,5,5,7,9,4,9,0,0,0,0,0,0,0,0,0,0,0,0,0,0,0,0],"split_type":[0,0,0,0,0,0,0,0,0,0,0,0,0,0,0,0,0,0,0,0,0,0,0,0,0,0,0,0,0,0,0,0,0,0,0],"sum_hessian":[2.8689954E3,2.8325432E3,3.645225E1,2.8050417E3,2.7501455E1,2.1957869E3,6.092548E2,1.59854E3,5.972468E2,1.1024497E2,4.9900986E2,9.990518E2,5.994882E2,3.4214787E1,5.6303204E2,1.8878103E1,9.136687E1,2.3610077E2,2.629091E2,3.9139175E2,6.076601E2,5.167535E1,5.4781287E2,1.0359943E1,2.3854843E1,2.5179764E2,3.112344E2,2.260805E0,1.6617298E1,1.7815571E0,8.958531E1,1.4962811E2,8.647266E1,3.222232E1,2.3068677E2],"tree_param":{"num_deleted":"0","num_feature":"78","num_nodes":"35","size_leaf_vector":"1"}},{"base_weights":[1.3394225E-2,2.3765346E-2,-3.0015206E-1,3.428869E-2,-2.997403E-1,4.2303465E-2,-2.939356E-1,8.540516E-2,-1.0484E-1,1.5855587E-1,-9.6475154E-2,1.133299E-1,-1.5889445E-1,9.345464E-2,-2.0944797E-2,1.7752163E-1,-3.588756E-2,-1.3384303E-1,6.248239E-2,2.1537408E-2,-7.781222E-2],"categories":[],"categories_nodes":[],"categories_segments":[],"categories_sizes":[],"default_left":[0,0,0,0,0,0,0,0,0,0,0,0,0,0,0,0,0,0,0,0,0],"id":13,"left_children":[1,3,-1,5,-1,7,-1,9,11,13,15,17,19,-1,-1,-1,-1,-1,-1,-1,-1],"loss_changes":[2.9712378E1,3.012876E1,0E0,2.2540703E1,0E0,1.7434042E1,0E0,2.8295584E1,7.364157E0,5.2988083E1,9.794298E0,6.694271E0,1.1600048E1,0E0,0E0,0E0,0E0,0E0,0E0,0E0,0E0],"parents":[2147483647,0,0,1,1,3,3,5,5,7,7,8,8,9,9,10,10,11,11,12,12],"right_children":[2,4,-1,6,-1,8,-1,10,12,14,16,18,20,-1,-1,-1,-1,-1,-1,-1,-1],"split_conditions":[1E0,1E0,-3.0015206E-1,1E0,-2.997403E-1,1E0,-2.939356E-1,1E0,3.1441048E-1,1E0,9.170306E-2,1.3051397E-1,2.0512821E-1,9.345464E-2,-2.0944797E-2,1.7752163E-1,-3.588756E-2,-1.3384303E-1,6.248239E-2,2.1537408E-2,-7.781222E-2],"split_indices":[70,77,0,76,0,71,0,74,10,73,10,5,7,0,0,0,0,0,0,0,0],"split_type":[0,0,0,0,0,0,0,0,0,0,0,0,0,0,0,0,0,0,0,0,0],"sum_hessian":[2.8223743E3,2.7947634E3,2.7610874E1,2.767261E3,2.7502424E1,2.7465122E3,2.0748894E1,2.1245903E3,6.219217E2,1.5152843E3,6.093061E2,1.2327464E2,4.9864703E2,9.072558E2,6.080285E2,1.902947E1,5.902766E2,1.7348358E1,1.05926285E2,1.5138219E2,3.4726486E2],"tree_param":{"num_deleted":"0","num_feature":"78","num_nodes":"21","size_leaf_vector":"1"}},{"base_weights":[9.575454E-3,1.7409453E-2,-2.9405648E-1,6.5209575E-2,-1.5990885E-1,7.573363E-2,-2.9373282E-1,-6.568939E-2,-3.8162577E-1,1.368691E-1,-7.109253E-2,4.4588104E-2,-2.7128765E-1,-6.378275E-1,-1.7537896E-1,2.7604854E-1,-6.560935E-2,-5.112273E-2,-6.147413E-1,-3.4695414E-1,1.18269175E-1,-4.5703024E-1,-9.780524E-3,-1.0532504E0,-4.2915294E-1,2.8592551E-2,-5.533031E-1,2.9243538E-1,-1.4466196E-2,-4.7870967E-1,-1.7080793E-2,-4.4408247E-2,1.3938315E-2,2.5537305E-2,-2.959779E-1,-7.121011E-3,-2.3134105E-1,4.647272E-2,-2.46087E-1,-4.081592E-1,-1.1662233E-1,3.0877102E-2,-3.0478704E-1,-3.8078853E-1,1.5009665E-1,-4.4363506E-2,-2.8442204E-1,-2.3783316E-1,4.5542143E-2,1.8147837E-3,-2.4782701E-1],"categories":[],"categories_nodes":[],"categories_segments":[],"categories_sizes":[],"default_left":[0,0,0,0,0,0,0,0,0,0,0,0,0,0,0,0,0,0,0,0,0,0,0,0,0,0,0,0,0,0,0,0,0,0,0,0,0,0,0,0,0,0,0,0,0,0,0,0,0,0,0],"id":14,"left_children":[1,3,-1,5,7,9,-1,11,13,15,17,19,21,23,25,27,29,31,33,35,37,39,41,43,45,47,49,-1,-1,-1,-1,-1,-1,-1,-1,-1,-1,-1,-1,-1,-1,-1,-1,-1,-1,-1,-1,-1,-1,-1,-1],"loss_changes":[2.1556688E1,2.3379234E1,0E0,2.3949787E1,1.2210554E1,1.9323542E1,0E0,9.358974E0,9.107056E0,4.283776E1,6.842819E0,7.8068285E0,6.9931717E0,6.2603054E0,7.572946E0,2.0412115E2,8.134304E0,5.79268E0,5.898939E0,5.861671E0,7.943556E0,4.6669674E0,7.005171E0,9.093956E0,7.6289625E0,6.6603937E0,5.255931E0,0E0,0E0,0E0,0E0,0E0,0E0,0E0,0E0,0E0,0E0,0E0,0E0,0E0,0E0,0E0,0E0,0E0,0E0,0E0,0E0,0E0,0E0,0E0,0E0],"parents":[2147483647,0,0,1,1,3,3,4,4,5,5,7,7,8,8,9,9,10,10,11,11,12,12,13,13,14,14,15,15,16,16,17,17,18,18,19,19,20,20,21,21,22,22,23,23,24,24,25,25,26,26],"right_children":[2,4,-1,6,8,10,-1,12,14,16,18,20,22,24,26,28,30,32,34,36,38,40,42,44,46,48,50,-1,-1,-1,-1,-1,-1,-1,-1,-1,-1,-1,-1,-1,-1,-1,-1,-1,-1,-1,-1,-1,-1,-1,-1],"split_conditions":[1E0,1E0,-2.9405648E-1,1E0,4.66208E-1,1E0,-2.9373282E-1,1E0,3.0769232E-1,1E0,7.380016E-1,1.2273476E-1,2.9159802E-1,4.6899563E-1,3.460269E-1,1E0,2.7586207E-1,2.2158155E-1,4.6637556E-1,1.923077E-1,1E0,1.2363416E-1,7.8515285E-1,1E0,8.2758623E-1,2.2574235E-2,3.6664045E-1,2.9243538E-1,-1.4466196E-2,-4.7870967E-1,-1.7080793E-2,-4.4408247E-2,1.3938315E-2,2.5537305E-2,-2.959779E-1,-7.121011E-3,-2.3134105E-1,4.647272E-2,-2.46087E-1,-4.081592E-1,-1.1662233E-1,3.0877102E-2,-3.0478704E-1,-3.8078853E-1,1.5009665E-1,-4.4363506E-2,-2.8442204E-1,-2.3783316E-1,4.5542143E-2,1.8147837E-3,-2.4782701E-1],"split_indices":[70,75,0,77,5,71,0,1,11,74,2,4,4,10,3,73,6,4,10,11,31,5,10,50,6,9,2,0,0,0,0,0,0,0,0,0,0,0,0,0,0,0,0,0,0,0,0,0,0,0,0],"split_type":[0,0,0,0,0,0,0,0,0,0,0,0,0,0,0,0,0,0,0,0,0,0,0,0,0,0,0,0,0,0,0,0,0,0,0,0,0,0,0,0,0,0,0,0,0,0,0,0,0,0,0],"sum_hessian":[2.7769414E3,2.7561091E3,2.0832249E1,2.1713936E3,5.847155E2,2.1506482E3,2.074554E1,4.112497E2,1.7346587E2,1.5184597E3,6.321884E2,2.6818527E2,1.4306439E2,7.643055E1,9.703531E1,8.996771E2,6.187826E2,6.1084436E2,2.1344055E1,4.188721E1,2.2629808E2,8.3212654E1,5.9851746E1,2.4202213E1,5.2228336E1,6.3621918E1,3.3413395E1,2.8454114E2,6.15136E2,2.4564579E0,6.163261E2,3.0622916E2,3.046152E2,7.6732435E0,1.3670811E1,2.437215E1,1.7515059E1,2.1859924E2,7.6988244E0,4.5177283E0,7.869492E1,5.4630196E1,5.22155E0,2.1408115E1,2.7940967E0,3.470298E1,1.7525356E1,7.590203E0,5.6031715E1,1.1273921E1,2.2139473E1],"tree_param":{"num_deleted":"0","num_feature":"78","num_nodes":"51","size_leaf_vector":"1"}},{"base_weights":[9.1616595E-3,1.7060302E-2,-2.939048E-1,2.3101607E-2,-2.8780517E-1,2.9183201E-2,-2.875367E-1,9.465903E-2,-5.9598602E-2,2.01145E-1,1.0402067E-2,2.0773241E-1,-1.0491862E-1,-3.4813834E-3,8.0116495E-2,-8.1052504E-2,1.515987E-2,1.0583282E-1,-6.387496E-2,-8.102333E-3,-7.313068E-2],"categories":[],"categories_nodes":[],"categories_segments":[],"categories_sizes":[],"default_left":[0,0,0,0,0,0,0,0,0,0,0,0,0,0,0,0,0,0,0,0,0],"id":15,"left_children":[1,3,-1,5,-1,7,-1,9,11,13,15,17,19,-1,-1,-1,-1,-1,-1,-1,-1],"loss_changes":[2.1407019E1,1.6054684E1,0E0,1.6158539E1,0E0,1.5622583E1,0E0,1.3874247E1,1.3844671E1,9.582087E0,9.747423E0,1.018597E1,1.0554025E1,0E0,0E0,0E0,0E0,0E0,0E0,0E0,0E0],"parents":[2147483647,0,0,1,1,3,3,5,5,7,7,8,8,9,9,10,10,11,11,12,12],"right_children":[2,4,-1,6,-1,8,-1,10,12,14,16,18,20,-1,-1,-1,-1,-1,-1,-1,-1],"split_conditions":[1E0,1E0,-2.939048E-1,1E0,-2.8780517E-1,1E0,-2.875367E-1,3.1858975E-1,1.8676649E-1,1.3920923E-1,2.6399627E-2,8.7931037E-1,1E0,-3.4813834E-3,8.0116495E-2,-8.1052504E-2,1.515987E-2,1.0583282E-1,-6.387496E-2,-8.102333E-3,-7.313068E-2],"split_indices":[76,70,0,77,0,68,0,0,5,4,9,6,48,0,0,0,0,0,0,0,0],"split_type":[0,0,0,0,0,0,0,0,0,0,0,0,0,0,0,0,0,0,0,0,0],"sum_hessian":[2.7376506E3,2.7169312E3,2.0719421E1,2.7011946E3,1.5736645E1,2.6855256E3,1.5668881E1,1.5455957E3,1.13993E3,6.8212396E2,8.6347174E2,1.6471794E2,9.752121E2,1.615343E2,5.2058966E2,1.07330666E2,7.5614105E2,1.2260423E2,4.2113716E1,6.25455E2,3.4975702E2],"tree_param":{"num_deleted":"0","num_feature":"78","num_nodes":"21","size_leaf_vector":"1"}},{"base_weights":[6.308424E-3,1.2279366E-2,-2.8765643E-1,7.7064663E-1,5.545346E-3,2.885878E-1,3.2180724E-1,4.306208E-2,-1.2834513E-1,6.0351413E-1,-2.1266228E-1,4.9061466E-2,-2.8063348E-1,2.5449312E-1,-1.6213572E-1,2.4792455E-1,-3.0952377E-2,5.5122405E-2,-2.8048426E-1,-3.701165E-1,4.466415E-1,-6.4782E-2,-2.7070332E-1,3.214512E-2,-1.8974576E-2,5.8985865E-3,-4.608759E-1,1.5266067E-1,-2.6560372E-1,-4.4033576E-2,9.176672E-2,-6.1143227E-2,-2.7968177E-1],"categories":[],"categories_nodes":[],"categories_segments":[],"categories_sizes":[],"default_left":[0,0,0,0,0,0,0,0,0,0,0,0,0,0,0,0,0,0,0,0,0,0,0,0,0,0,0,0,0,0,0,0,0],"id":16,"left_children":[1,3,-1,5,7,-1,9,11,13,15,-1,17,-1,19,21,-1,-1,23,-1,25,27,29,31,-1,-1,-1,-1,-1,-1,-1,-1,-1,-1],"loss_changes":[1.5607467E1,1.373602E1,0E0,1.7232561E0,1.3406653E1,0E0,2.9183464E0,1.2283987E1,7.5984554E0,1.2314875E0,0E0,1.2414618E1,0E0,5.898466E0,5.6626434E0,0E0,0E0,1.2700888E1,0E0,5.386861E0,3.5160103E0,8.696629E0,1.1039885E1,0E0,0E0,0E0,0E0,0E0,0E0,0E0,0E0,0E0,0E0],"parents":[2147483647,0,0,1,1,3,3,4,4,6,6,7,7,8,8,9,9,11,11,13,13,14,14,17,17,19,19,20,20,21,21,22,22],"right_children":[2,4,-1,6,8,-1,10,12,14,16,-1,18,-1,20,22,-1,-1,24,-1,26,28,30,32,-1,-1,-1,-1,-1,-1,-1,-1,-1,-1],"split_conditions":[1E0,4.602675E-2,-2.8765643E-1,1E0,1E0,2.885878E-1,4.4030756E-1,1E0,1.464994E-1,4.2782003E-1,-2.1266228E-1,1E0,-2.8063348E-1,6.8191014E-2,2.5715426E-1,2.4792455E-1,-3.0952377E-2,1E0,-2.8048426E-1,5.091703E-1,6.571011E-1,1E0,8.7931037E-1,3.214512E-2,-1.8974576E-2,5.8985865E-3,-4.608759E-1,1.5266067E-1,-2.6560372E-1,-4.4033576E-2,9.176672E-2,-6.1143227E-2,-2.7968177E-1],"split_indices":[76,2,0,48,75,0,5,70,5,3,0,77,0,5,3,0,0,71,0,10,3,50,6,0,0,0,0,0,0,0,0,0,0],"split_type":[0,0,0,0,0,0,0,0,0,0,0,0,0,0,0,0,0,0,0,0,0,0,0,0,0,0,0,0,0,0,0,0,0],"sum_hessian":[2.7052073E3,2.6895557E3,1.5651549E1,2.267361E1,2.666882E3,1.5095929E1,7.5776825E0,2.0836985E3,5.8318365E2,6.276606E0,1.3010768E0,2.0719448E3,1.1753565E1,4.676925E1,5.364144E2,4.64278E0,1.6338263E0,2.0601992E3,1.1745684E1,1.0784917E1,3.5984333E1,2.8365482E2,2.5275957E2,1.4312236E3,6.289756E2,8.819993E0,1.9649234E0,3.496864E1,1.0156913E0,2.3276797E2,5.088686E1,2.3073734E2,2.2022238E1],"tree_param":{"num_deleted":"0","num_feature":"78","num_nodes":"33","size_leaf_vector":"1"}},{"base_weights":[4.293081E-3,-2.3306208E-2,1.6485201E-1,-2.7774766E-2,2.7346924E-1,2.4043123E-1,-1.01188414E-1,-2.3276066E-2,-2.7764803E-1,-9.598665E-2,3.2999858E-1,-2.1543878E-1,9.306697E-1,1.2792692E-1,-4.9160667E-2,1.2467342E-2,-1.156967E0,3.4559175E-1,-4.912653E-1,-7.947973E-1,-3.618702E-2,3.355901E-1,4.760533E-2,3.3707386E-1,-2.1820195E-2,-9.721671E-1,-4.2500034E-2,2.9345044E-1,-5.910017E-1,-1.8234373E0,4.899266E-2,2.4509636E-1,5.6234473E-1,-9.172129E-1,2.017087E-1,4.5927796E-1,-2.3267579E-1,1.1654817E-1,-1.3276996E-1,-9.6673526E-2,5.9953716E-2,-8.420302E-2,-5.576199E-1,6.932558E-2,-2.0477032E-2,1.5743506E-1,-7.3695816E-2,-5.319932E-2,-4.9628857E-1,-1.51311E-1,-6.741038E-1,9.200543E-2,-2.050862E-1,2.7028444E-1,1.10574886E-1,-3.1396532E-1,9.727155E-2,2.3149465E-1,-1.3062287E-2,-1.1724132E-2,-2.685393E-1],"categories":[],"categories_nodes":[],"categories_segments":[],"categories_sizes":[],"default_left":[0,0,0,0,0,0,0,0,0,0,0,0,0,0,0,0,0,0,0,0,0,0,0,0,0,0,0,0,0,0,0,0,0,0,0,0,0,0,0,0,0,0,0,0,0,0,0,0,0,0,0,0,0,0,0,0,0,0,0,0,0],"id":17,"left_children":[1,3,5,7,-1,9,11,13,-1,15,17,19,21,23,25,27,29,31,-1,33,35,-1,-1,37,39,41,43,45,47,49,-1,51,53,55,-1,57,59,-1,-1,-1,-1,-1,-1,-1,-1,-1,-1,-1,-1,-1,-1,-1,-1,-1,-1,-1,-1,-1,-1,-1,-1],"loss_changes":[1.1888474E1,9.5895405E0,7.9368505E0,9.184485E0,0E0,9.274784E0,1.0547128E1,8.887501E0,0E0,7.52516E0,8.005314E0,8.261468E0,1.1192784E0,1.0404092E1,1.1874525E1,1.0382633E1,5.6337004E0,5.12051E0,0E0,3.9959078E0,6.1440573E0,0E0,0E0,5.7270947E0,1.3009651E1,7.9634104E0,1.3583323E1,5.3355145E0,8.265957E0,1.1641607E0,0E0,9.744814E0,4.6342316E0,3.1956348E0,0E0,2.8522542E0,5.744854E0,0E0,0E0,0E0,0E0,0E0,0E0,0E0,0E0,0E0,0E0,0E0,0E0,0E0,0E0,0E0,0E0,0E0,0E0,0E0,0E0,0E0,0E0,0E0,0E0],"parents":[2147483647,0,0,1,1,2,2,3,3,5,5,6,6,7,7,9,9,10,10,11,11,12,12,13,13,14,14,15,15,16,16,17,17,19,19,20,20,23,23,24,24,25,25,26,26,27,27,28,28,29,29,31,31,32,32,33,33,35,35,36,36],"right_children":[2,4,6,8,-1,10,12,14,-1,16,18,20,22,24,26,28,30,32,-1,34,36,-1,-1,38,40,42,44,46,48,50,-1,52,54,56,-1,58,60,-1,-1,-1,-1,-1,-1,-1,-1,-1,-1,-1,-1,-1,-1,-1,-1,-1,-1,-1,-1,-1,-1,-1,-1],"split_conditions":[3.9456344E-1,1E0,7.7692306E-1,1E0,2.7346924E-1,1E0,7.8951967E-1,2.6375547E-1,-2.7764803E-1,8.113537E-1,1E0,5.97099E-2,2.1809559E-1,1.7165533E-1,5.12868E-3,5.4695225E-1,1E0,4.1542092E-1,-4.912653E-1,1E0,4.645799E-1,3.355901E-1,4.760533E-2,1E0,1.6681223E-1,1.7524712E-1,1.2820514E-1,4.1900715E-1,8.2758623E-1,4.4398683E-1,4.899266E-2,1E0,1E0,1E0,2.017087E-1,4.220963E-1,5.1282054E-1,1.1654817E-1,-1.3276996E-1,-9.6673526E-2,5.9953716E-2,-8.420302E-2,-5.576199E-1,6.932558E-2,-2.0477032E-2,1.5743506E-1,-7.3695816E-2,-5.319932E-2,-4.9628857E-1,-1.51311E-1,-6.741038E-1,9.200543E-2,-2.050862E-1,2.7028444E-1,1.10574886E-1,-3.1396532E-1,9.727155E-2,2.3149465E-1,-1.3062287E-2,-1.1724132E-2,-2.685393E-1],"split_indices":[4,72,0,76,0,12,10,10,0,10,40,9,9,3,9,4,49,2,0,58,4,0,0,26,10,4,7,3,6,4,0,26,1,25,0,5,11,0,0,0,0,0,0,0,0,0,0,0,0,0,0,0,0,0,0,0,0,0,0,0,0],"split_type":[0,0,0,0,0,0,0,0,0,0,0,0,0,0,0,0,0,0,0,0,0,0,0,0,0,0,0,0,0,0,0,0,0,0,0,0,0,0,0,0,0,0,0,0,0,0,0,0,0,0,0,0,0,0,0,0,0,0,0,0,0],"sum_hessian":[2.680967E3,2.2884487E3,3.9251825E2,2.278528E3,9.920775E0,3.057533E2,8.676495E1,2.2681875E3,1.0340548E1,6.427241E1,2.4148088E2,7.882809E1,7.9368653E0,3.30961E2,1.9372264E3,5.9208347E1,5.06406E0,2.4040002E2,1.0808564E0,1.781485E1,6.101324E1,6.021668E0,1.9151976E0,1.375702E2,1.933908E2,1.2840779E1,1.9243857E3,4.0748867E1,1.845948E1,3.1120205E0,1.9520396E0,1.6570383E2,7.46962E1,1.6788872E1,1.0259774E0,1.694568E1,4.406756E1,1.29529E2,8.041195E0,8.191596E1,1.1147483E2,7.953734E0,4.8870454E0,1.6489691E2,1.7594888E3,2.8532099E1,1.2216767E1,1.41293E1,4.330179E0,1.2889162E0,1.8231044E0,1.5602661E2,9.677219E0,2.5858349E1,4.883785E1,1.5346972E1,1.4418994E0,1.0122525E1,6.823156E0,3.4921207E1,9.146352E0],"tree_param":{"num_deleted":"0","num_feature":"78","num_nodes":"61","size_leaf_vector":"1"}},{"base_weights":[4.160498E-3,-1.7339863E-1,2.8956825E-2,-2.40347E-1,2.347557E-1,6.9684945E-2,-7.306874E-2,1.1578485E-1,-3.322011E-1,-1.3024198E0,3.532892E-1,7.919871E-2,-9.657273E-1,2.1329696E-1,-1.4192408E-1,2.5884852E-1,-5.640946E-1,-6.773252E-1,-2.330344E-1,8.68258E-2,-6.728285E-1,4.3416902E-1,-4.416373E-1,1.4400709E-1,-3.8394853E-2,-1.6374629E0,-3.719677E-1,2.617891E-1,-1.0096171E0,-1.7169906E-1,4.7998482E-1,-1.0375642E0,3.574355E-1,3.030941E-1,-1.3516458E0,-1.1597686E0,-2.7336478E-1,-1.6632752E-1,-9.6291095E-1,6.207046E-1,-4.957381E-1,2.8407833E-1,6.2945925E-2,-9.607417E-2,3.2855752E-1,-2.4673988E-1,-2.565111E0,3.4780827E-1,-1.2266545E0,1.1000219E-1,5.19966E-1,-9.319501E-4,-5.100236E-1,-4.9456665E-1,-1.20583326E-1,-3.5375002E-1,6.1619073E-1,-3.163192E-2,-4.8697868E-1,1.4075537E-1,-2.5290808E-1,-1.4638591E-1,2.0721258E-1,-5.498496E-1,7.399339E-3,-4.284054E-1,1.5182737E-1,5.05263E-2,-2.7319166E-1,-2.9432005E-1,-2.9633652E-2,-5.456282E-1,1.7415782E-2,2.133511E-1,-7.35023E-2,-2.9457664E-1,9.0157844E-2,-2.6392347E-1,9.209174E-2,3.1886764E-2,-1.0133711E-1,-2.3683518E-2,-3.3970326E-1,1.2794341E-1,-1.670367E-1,2.0062338E-1,-3.949069E-1,-9.038902E-1,-2.2377014E-1,2.8408706E-1,-2.6568726E-1,-6.132233E-1,-3.6430523E-2,7.9526454E-2,-1.0058785E-1,6.394099E-2,2.506569E-1,2.0707573E-1,-2.137925E-1,-3.714896E-1,-1.1515019E-1,-7.408071E-2,-8.65833E-3,2.362834E-1,-3.8039353E-1,2.2468711E-1,-9.132118E-3],"categories":[],"categories_nodes":[],"categories_segments":[],"categories_sizes":[],"default_left":[0,0,0,0,0,0,0,0,0,0,0,0,0,0,0,0,0,0,0,0,0,0,0,0,0,0,0,0,0,0,0,0,0,0,0,0,0,0,0,0,0,0,0,0,0,0,0,0,0,0,0,0,0,0,0,0,0,0,0,0,0,0,0,0,0,0,0,0,0,0,0,0,0,0,0,0,0,0,0,0,0,0,0,0,0,0,0,0,0,0,0,0,0,0,0,0,0,0,0,0,0,0,0,0,0,0,0],"id":18,"left_children":[1,3,5,7,9,11,13,15,17,19,21,23,25,27,29,31,33,35,37,-1,-1,39,-1,41,43,45,47,49,51,53,55,57,59,61,63,65,67,69,71,73,75,77,79,81,83,85,87,89,91,93,95,97,-1,99,101,103,105,-1,-1,-1,-1,-1,-1,-1,-1,-1,-1,-1,-1,-1,-1,-1,-1,-1,-1,-1,-1,-1,-1,-1,-1,-1,-1,-1,-1,-1,-1,-1,-1,-1,-1,-1,-1,-1,-1,-1,-1,-1,-1,-1,-1,-1,-1,-1,-1,-1,-1],"loss_changes":[1.1757922E1,8.998564E0,9.74164E0,9.251144E0,8.954528E0,1.6577927E1,1.3221474E1,5.8347225E0,7.513397E0,5.9643536E0,7.14541E0,1.2662804E1,5.504344E0,7.978101E0,1.0080332E1,6.6340446E0,7.568405E0,9.330809E0,8.391262E0,0E0,0E0,7.7615156E0,0E0,1.2141932E1,1.2538122E1,8.265793E0,6.2278066E0,4.8769445E0,3.5970979E0,8.456067E0,3.049262E0,1.8594413E0,6.6046467E0,2.1171517E0,3.8044624E0,1.0666504E1,8.107478E0,8.826318E0,1.2774974E1,3.0121117E0,3.289783E0,1.0722584E1,1.1840845E1,8.988198E0,7.2153635E0,4.6663423E0,1.037096E0,5.1973968E0,3.8460264E0,5.652329E0,4.3095465E0,2.0169845E0,0E0,5.3062706E0,5.1708364E0,5.3148985E0,1.8939791E0,0E0,0E0,0E0,0E0,0E0,0E0,0E0,0E0,0E0,0E0,0E0,0E0,0E0,0E0,0E0,0E0,0E0,0E0,0E0,0E0,0E0,0E0,0E0,0E0,0E0,0E0,0E0,0E0,0E0,0E0,0E0,0E0,0E0,0E0,0E0,0E0,0E0,0E0,0E0,0E0,0E0,0E0,0E0,0E0,0E0,0E0,0E0,0E0,0E0,0E0],"parents":[2147483647,0,0,1,1,2,2,3,3,4,4,5,5,6,6,7,7,8,8,9,9,10,10,11,11,12,12,13,13,14,14,15,15,16,16,17,17,18,18,21,21,23,23,24,24,25,25,26,26,27,27,28,28,29,29,30,30,31,31,32,32,33,33,34,34,35,35,36,36,37,37,38,38,39,39,40,40,41,41,42,42,43,43,44,44,45,45,46,46,47,47,48,48,49,49,50,50,51,51,53,53,54,54,55,55,56,56],"right_children":[2,4,6,8,10,12,14,16,18,20,22,24,26,28,30,32,34,36,38,-1,-1,40,-1,42,44,46,48,50,52,54,56,58,60,62,64,66,68,70,72,74,76,78,80,82,84,86,88,90,92,94,96,98,-1,100,102,104,106,-1,-1,-1,-1,-1,-1,-1,-1,-1,-1,-1,-1,-1,-1,-1,-1,-1,-1,-1,-1,-1,-1,-1,-1,-1,-1,-1,-1,-1,-1,-1,-1,-1,-1,-1,-1,-1,-1,-1,-1,-1,-1,-1,-1,-1,-1,-1,-1,-1,-1],"split_conditions":[1.1861614E-1,7.1091706E-1,4.8977184E-1,2.7772924E-1,3.846154E-2,1E0,2.0068404E-1,2.4423076E-1,7.413793E-1,4.5908734E-1,1E0,1E0,1.21939234E-1,6.4102566E-1,1E0,5.5038445E-2,7.9310346E-1,3.9579117E-1,3.974359E-1,8.68258E-2,-6.728285E-1,5.884104E-2,-4.416373E-1,2.9765278E-1,4.7435898E-1,7.758621E-1,4.6174206E-2,2.2158155E-1,5.318647E-1,1.598023E-1,2.6399627E-2,9.390445E-2,6.7887497E-1,6.7241377E-1,1E0,5.1809597E-1,5.344978E-1,5.2718285E-2,1.6771044E-1,2.3994687E-1,4.6184108E-1,5.108567E-4,1E0,7.043707E-1,7.4358976E-1,2.545305E-1,1E0,1E0,3.5955942E-1,1E0,4.029332E-2,5.1282054E-1,-5.100236E-1,1.6186515E-2,5.731707E-1,3.5714287E-1,7.7292573E-1,-3.163192E-2,-4.8697868E-1,1.4075537E-1,-2.5290808E-1,-1.4638591E-1,2.0721258E-1,-5.498496E-1,7.399339E-3,-4.284054E-1,1.5182737E-1,5.05263E-2,-2.7319166E-1,-2.9432005E-1,-2.9633652E-2,-5.456282E-1,1.7415782E-2,2.133511E-1,-7.35023E-2,-2.9457664E-1,9.0157844E-2,-2.6392347E-1,9.209174E-2,3.1886764E-2,-1.0133711E-1,-2.3683518E-2,-3.3970326E-1,1.2794341E-1,-1.670367E-1,2.0062338E-1,-3.949069E-1,-9.038902E-1,-2.2377014E-1,2.8408706E-1,-2.6568726E-1,-6.132233E-1,-3.6430523E-2,7.9526454E-2,-1.0058785E-1,6.394099E-2,2.506569E-1,2.0707573E-1,-2.137925E-1,-3.714896E-1,-1.1515019E-1,-7.408071E-2,-8.65833E-3,2.362834E-1,-3.8039353E-1,2.2468711E-1,-9.132118E-3],"split_indices":[4,10,2,10,11,56,3,0,6,2,55,48,3,11,29,5,6,5,11,0,0,9,0,5,11,6,9,4,2,4,9,4,5,6,48,2,10,4,3,3,2,9,26,5,0,4,49,49,2,75,9,7,0,9,2,5,10,0,0,0,0,0,0,0,0,0,0,0,0,0,0,0,0,0,0,0,0,0,0,0,0,0,0,0,0,0,0,0,0,0,0,0,0,0,0,0,0,0,0,0,0,0,0,0,0,0,0],"split_type":[0,0,0,0,0,0,0,0,0,0,0,0,0,0,0,0,0,0,0,0,0,0,0,0,0,0,0,0,0,0,0,0,0,0,0,0,0,0,0,0,0,0,0,0,0,0,0,0,0,0,0,0,0,0,0,0,0,0,0,0,0,0,0,0,0,0,0,0,0,0,0,0,0,0,0,0,0,0,0,0,0,0,0,0,0,0,0,0,0,0,0,0,0,0,0,0,0,0,0,0,0,0,0,0,0,0,0],"sum_hessian":[2.6684067E3,3.262481E2,2.3421587E3,2.8062854E2,4.5619553E1,1.6741592E3,6.6799945E2,5.748606E1,2.2314249E2,2.5509057E0,4.3068645E1,1.6598315E3,1.4327662E1,1.2907706E2,5.3892236E2,4.8004078E1,9.481986E0,4.8504585E1,1.7463791E2,1.2043555E0,1.3465502E0,4.1971153E1,1.097492E0,1.0699398E3,5.898917E2,5.8976793E0,8.429983E0,1.24909935E2,4.167117E0,5.1499023E2,2.3932146E1,2.7194273E0,4.528465E1,4.8055925E0,4.676393E0,2.1252306E1,2.725228E1,1.6113857E2,1.3499332E1,3.5235554E1,6.735599E0,3.912929E2,6.786469E2,5.104024E2,7.9489296E1,2.8663914E0,3.031288E0,4.8980985E0,3.5318842E0,7.9560776E1,4.5349163E1,2.1002471E0,2.06687E0,6.920269E1,4.4578754E2,3.136434E0,2.0795712E1,1.5047222E0,1.2147051E0,4.1985455E1,3.2991936E0,1.4952374E0,3.3103552E0,3.2191966E0,1.4571966E0,1.842771E1,2.824595E0,1.6529226E1,1.0723054E1,1.1301504E1,1.4983707E2,6.918392E0,6.5809407E0,3.206348E1,3.1720743E0,4.0373235E0,2.6982756E0,6.8267765E0,3.8446613E2,6.130723E2,6.557459E1,5.0316153E2,7.240871E0,7.203989E1,7.449416E0,1.7464156E0,1.1199758E0,1.9058963E0,1.1253915E0,3.4530258E0,1.4450729E0,1.5419658E0,1.9899185E0,5.930938E1,2.0251398E1,2.3842003E1,2.1507158E1,1.0807827E0,1.0194645E0,7.648572E0,6.155412E1,1.867866E2,2.5900095E2,1.456533E0,1.6799011E0,1.712198E1,3.6737309E0],"tree_param":{"num_deleted":"0","num_feature":"78","num_nodes":"107","size_leaf_vector":"1"}},{"base_weights":[3.4244405E-3,-6.7539717E-4,2.7551576E-1,2.9906512E-3,-2.74928E-1,6.54766E-3,-2.738809E-1,1.0125586E-2,-2.737599E-1,7.039563E-1,5.3697927E-3,2.836374E-1,7.3146015E-2,5.5352703E-4,2.7117005E-1],"categories":[],"categories_nodes":[],"categories_segments":[],"categories_sizes":[],"default_left":[0,0,0,0,0,0,0,0,0,0,0,0,0,0,0],"id":19,"left_children":[1,3,-1,5,-1,7,-1,9,-1,11,13,-1,-1,-1,-1],"loss_changes":[9.946744E0,8.867825E0,0E0,8.577979E0,0E0,8.631134E0,0E0,8.61749E0,0E0,1.7451582E0,8.219847E0,0E0,0E0,0E0,0E0],"parents":[2147483647,0,0,1,1,3,3,5,5,7,7,9,9,10,10],"right_children":[2,4,-1,6,-1,8,-1,10,-1,12,14,-1,-1,-1,-1],"split_conditions":[1E0,1E0,2.7551576E-1,1E0,-2.74928E-1,1E0,-2.738809E-1,4.602675E-2,-2.737599E-1,1E0,1E0,2.836374E-1,7.3146015E-2,5.5352703E-4,2.7117005E-1],"split_indices":[69,76,0,70,0,77,0,2,0,48,72,0,0,0,0],"split_type":[0,0,0,0,0,0,0,0,0,0,0,0,0,0,0],"sum_hessian":[2.6504558E3,2.6396272E3,1.0828607E1,2.630095E3,9.532387E0,2.6209094E3,9.185471E0,2.6117312E3,9.178329E0,1.67791E1,2.5949521E3,1.0312085E1,6.467015E0,2.5858105E3,9.141416E0],"tree_param":{"num_deleted":"0","num_feature":"78","num_nodes":"15","size_leaf_vector":"1"}},{"base_weights":[2.483903E-3,8.7668365E-3,-4.6841165E-1,5.6453617E-3,2.6786438E-1,-1.052448E0,-1.310109E-1,8.461004E-3,-2.6582244E-1,7.043985E-1,-1.7120678E0,-3.6316594E-1,8.017087E-1,1.1164266E-2,-2.6425648E-1,5.9046477E-2,2.4466711E-1,-1.9547148E0,4.87503E-2,-1.455983E-1,-5.851004E-1,2.6075007E-2,2.917106E-1,3.8350657E-2,-7.934225E-2,-1.3259475E-1,-2.212628E0,2.413941E-1,-3.2213107E-1,2.6260613E-2,-2.3732038E-2,-2.1493468E-2,-4.4121447E-1,-3.5372767E-1,-8.932708E-1,-2.4653111E-1,3.1916488E-2],"categories":[],"categories_nodes":[],"categories_segments":[],"categories_sizes":[],"default_left":[0,0,0,0,0,0,0,0,0,0,0,0,0,0,0,0,0,0,0,0,0,0,0,0,0,0,0,0,0,0,0,0,0,0,0,0,0],"id":20,"left_children":[1,3,5,7,-1,9,11,13,-1,15,17,19,21,23,-1,-1,-1,25,-1,27,-1,-1,-1,29,31,-1,33,-1,35,-1,-1,-1,-1,-1,-1,-1,-1],"loss_changes":[7.804505E0,7.177954E0,6.706386E0,6.521998E0,0E0,1.577956E1,5.3054686E0,6.2302084E0,0E0,7.314062E-2,4.6090374E0,6.3565207E0,5.164952E-1,6.3527217E0,0E0,0E0,0E0,2.3110733E0,0E0,3.2774422E0,0E0,0E0,0E0,1.1475467E1,6.2823215E0,0E0,1.9857903E0,0E0,3.4890785E0,0E0,0E0,0E0,0E0,0E0,0E0,0E0,0E0],"parents":[2147483647,0,0,1,1,2,2,3,3,5,5,6,6,7,7,9,9,10,10,11,11,12,12,13,13,17,17,19,19,23,23,24,24,26,26,28,28],"right_children":[2,4,6,8,-1,10,12,14,-1,16,18,20,22,24,-1,-1,-1,26,-1,28,-1,-1,-1,30,32,-1,34,-1,36,-1,-1,-1,-1,-1,-1,-1,-1],"split_conditions":[1E0,1E0,7.413793E-1,1E0,2.6786438E-1,1.6713881E-1,3.5412273E-1,1E0,-2.6582244E-1,1.0339943E-1,5.4695225E-1,3.2042834E-1,3.4500393E-1,1E0,-2.6425648E-1,5.9046477E-2,2.4466711E-1,2.576419E-1,4.87503E-2,8.979578E-2,-5.851004E-1,2.6075007E-2,2.917106E-1,1E0,8.724891E-1,-1.3259475E-1,4.6666667E-1,2.413941E-1,4.6184108E-1,2.6260613E-2,-2.3732038E-2,-2.1493468E-2,-4.4121447E-1,-3.5372767E-1,-8.932708E-1,-2.4653111E-1,3.1916488E-2],"split_indices":[60,69,6,76,0,5,4,70,0,5,4,4,2,74,0,0,0,10,0,3,0,0,0,75,10,0,0,0,2,0,0,0,0,0,0,0,0],"split_type":[0,0,0,0,0,0,0,0,0,0,0,0,0,0,0,0,0,0,0,0,0,0,0,0,0,0,0,0,0,0,0,0,0,0,0,0,0],"sum_hessian":[2.635512E3,2.601779E3,3.3732903E1,2.5936282E3,8.150738E0,1.1575894E1,2.215701E1,2.586452E3,7.176315E0,3.1413264E0,8.434568E0,1.8230143E1,3.926867E0,2.5795981E3,6.8537836E0,1.0621103E0,2.0792162E0,7.430056E0,1.004512E0,1.6992554E1,1.2375891E0,1.0477533E0,2.8791137E0,1.9841688E3,5.954293E2,1.4775426E0,5.9525137E0,2.1047873E0,1.4887766E1,1.3987177E3,5.8545123E2,5.931991E2,2.2302048E0,3.6126993E0,2.3398142E0,6.4498076E0,8.437958E0],"tree_param":{"num_deleted":"0","num_feature":"78","num_nodes":"37","size_leaf_vector":"1"}},{"base_weights":[1.4447012E-3,3.285513E-2,-1.0698427E-1,7.6954216E-2,-6.726715E-2,-6.539073E-2,-5.0374573E-1,1.8447714E-1,-6.4412445E-2,3.9452064E-1,-8.2593955E-2,-9.21654E-2,4.4906276E-1,-6.8919444E-1,-2.5541117E-2,8.83497E-1,-5.4339334E-2,-3.9629664E-2,-4.3831214E-1,7.2737294E-1,-1.1116332E-1,-4.0471077E-1,-5.661125E-2,-1.6193584E-1,1.4384052E-1,5.8655995E-1,-3.6529136E-1,-3.4551045E-1,-1.1275787E0,-9.6795297E-1,2.991395E-1,9.524034E-1,-2.6584443E-1,-4.892092E-2,-4.0828454E-1,1.0473562E-1,-1.0826236E-1,-9.2207855E-1,2.4882694E-1,8.526342E-1,-2.1824459E-2,-6.738903E-1,2.671316E-1,-6.061616E-2,-1.0519938E0,2.3014475E-1,-9.0312734E-2,4.3957287E-1,-1.865973E-1,1.8858421E-1,-8.7138325E-1,7.912904E-1,-3.309259E-1,-5.3082764E-1,7.915994E-1,1.8900277E-1,-1.4516913E0,5.033807E-2,-5.0424755E-1,6.1285686E-1,-8.854069E-1,3.029354E-1,-2.56559E-1,-9.917065E-2,-7.1655936E-3,3.5830843E-3,2.0047952E-1,-1.8176991E-2,-1.3567999E-1,1.3507207E-1,-3.2277888E-1,-1.3286872E-1,2.90714E-1,8.482721E-2,2.8827885E-1,9.6067935E-2,-4.024314E-1,-1.7402852E-1,1.04239464E-1,-6.2077045E-1,-8.130025E-2,-2.2674263E-1,9.58459E-2,-2.6345575E-1,-2.0284478E-2,-1.382146E-1,2.6748332E-1,-2.9322272E-2,-1.04269885E-1,9.3481265E-2,-7.2137184E-2,-4.1950992E-1,1.0887534E-1,2.7755934E-1,-6.401943E-2,1.17529415E-1,-2.9950425E-1,-1.9045039E-1,2.255505E-1,2.6873613E-2,3.154264E-1,2.1532287E-1,-2.3091604E-1,-1.5829649E-2,-4.755093E-1,3.7359717E-1,3.5386056E-2,-5.7299126E-2,-3.4661812E-1],"categories":[],"categories_nodes":[],"categories_segments":[],"categories_sizes":[],"default_left":[0,0,0,0,0,0,0,0,0,0,0,0,0,0,0,0,0,0,0,0,0,0,0,0,0,0,0,0,0,0,0,0,0,0,0,0,0,0,0,0,0,0,0,0,0,0,0,0,0,0,0,0,0,0,0,0,0,0,0,0,0,0,0,0,0,0,0,0,0,0,0,0,0,0,0,0,0,0,0,0,0,0,0,0,0,0,0,0,0,0,0,0,0,0,0,0,0,0,0,0,0,0,0,0,0,0,0,0,0],"id":21,"left_children":[1,3,5,7,9,11,13,15,17,19,21,23,25,27,29,31,33,35,37,39,41,43,45,47,49,51,-1,53,55,57,59,61,-1,63,-1,65,67,69,71,73,-1,75,-1,77,79,81,83,85,87,89,91,93,95,97,99,101,103,-1,-1,105,107,-1,-1,-1,-1,-1,-1,-1,-1,-1,-1,-1,-1,-1,-1,-1,-1,-1,-1,-1,-1,-1,-1,-1,-1,-1,-1,-1,-1,-1,-1,-1,-1,-1,-1,-1,-1,-1,-1,-1,-1,-1,-1,-1,-1,-1,-1,-1,-1],"loss_changes":[8.949223E0,9.00087E0,9.707264E0,2.1518232E1,4.44565E0,7.4156713E0,4.935666E0,1.3424802E2,5.653432E0,3.4813607E0,5.034849E0,8.416287E0,6.8226256E0,5.668354E0,5.3829775E0,2.5813187E1,4.182176E0,5.7089415E0,1.2842087E1,1.2963891E0,5.608932E0,9.946484E0,5.4362288E0,5.9248323E0,5.4714227E0,5.0138435E0,0E0,5.4734344E0,7.625824E0,3.926629E0,5.4273357E0,2.1356354E1,0E0,4.2135773E0,0E0,9.7076435E0,6.3723598E0,5.230442E0,8.631254E0,3.9033747E-1,0E0,4.5833235E0,0E0,6.647256E0,1.1783834E1,5.457416E0,8.920624E0,6.845173E0,5.387863E0,6.0245085E0,3.831113E0,3.0197163E0,2.957358E0,3.307932E0,5.919752E-1,2.7261548E0,2.5165672E0,0E0,0E0,3.290979E0,3.7201953E-1,0E0,0E0,0E0,0E0,0E0,0E0,0E0,0E0,0E0,0E0,0E0,0E0,0E0,0E0,0E0,0E0,0E0,0E0,0E0,0E0,0E0,0E0,0E0,0E0,0E0,0E0,0E0,0E0,0E0,0E0,0E0,0E0,0E0,0E0,0E0,0E0,0E0,0E0,0E0,0E0,0E0,0E0,0E0,0E0,0E0,0E0,0E0,0E0],"parents":[2147483647,0,0,1,1,2,2,3,3,4,4,5,5,6,6,7,7,8,8,9,9,10,10,11,11,12,12,13,13,14,14,15,15,16,16,17,17,18,18,19,19,20,20,21,21,22,22,23,23,24,24,25,25,27,27,28,28,29,29,30,30,31,31,33,33,35,35,36,36,37,37,38,38,39,39,41,41,43,43,44,44,45,45,46,46,47,47,48,48,49,49,50,50,51,51,52,52,53,53,54,54,55,55,56,56,59,59,60,60],"right_children":[2,4,6,8,10,12,14,16,18,20,22,24,26,28,30,32,34,36,38,40,42,44,46,48,50,52,-1,54,56,58,60,62,-1,64,-1,66,68,70,72,74,-1,76,-1,78,80,82,84,86,88,90,92,94,96,98,100,102,104,-1,-1,106,108,-1,-1,-1,-1,-1,-1,-1,-1,-1,-1,-1,-1,-1,-1,-1,-1,-1,-1,-1,-1,-1,-1,-1,-1,-1,-1,-1,-1,-1,-1,-1,-1,-1,-1,-1,-1,-1,-1,-1,-1,-1,-1,-1,-1,-1,-1,-1,-1],"split_conditions":[1E0,1E0,6.361133E-1,1E0,4.4871796E-2,5.8536583E-1,3.5897437E-1,1E0,1E0,5.458515E-1,9.830317E-2,3.3278418E-1,6.282051E-1,2.6923078E-1,4.1978747E-2,1E0,1E0,7.241379E-1,3.280881E-1,2.6117793E-1,5.450479E-2,3.5301406E-2,1.4110576E-1,1.1091703E-1,6.483205E-1,7.948718E-1,-3.6529136E-1,2.820513E-1,6.3793105E-1,3.8081747E-1,4.2339373E-1,1E0,-2.6584443E-1,1.0214168E-1,-4.0828454E-1,1E0,7.4759823E-1,1.2820514E-1,2.5641027E-1,1.6976932E-1,-2.1824459E-2,1.5384616E-1,2.671316E-1,1.7948718E-1,2.8992918E-1,1.1210036E-1,1.5211025E-1,2.9694322E-2,1E0,4.5908734E-1,4.508261E-1,8.7931037E-1,4.0280065E-1,6.571011E-1,2.722298E-1,7.1243113E-1,2.0498754E-1,5.033807E-2,-5.0424755E-1,3.4615386E-1,6.227074E-1,3.029354E-1,-2.56559E-1,-9.917065E-2,-7.1655936E-3,3.5830843E-3,2.0047952E-1,-1.8176991E-2,-1.3567999E-1,1.3507207E-1,-3.2277888E-1,-1.3286872E-1,2.90714E-1,8.482721E-2,2.8827885E-1,9.6067935E-2,-4.024314E-1,-1.7402852E-1,1.04239464E-1,-6.2077045E-1,-8.130025E-2,-2.2674263E-1,9.58459E-2,-2.6345575E-1,-2.0284478E-2,-1.382146E-1,2.6748332E-1,-2.9322272E-2,-1.04269885E-1,9.3481265E-2,-7.2137184E-2,-4.1950992E-1,1.0887534E-1,2.7755934E-1,-6.401943E-2,1.17529415E-1,-2.9950425E-1,-1.9045039E-1,2.255505E-1,2.6873613E-2,3.154264E-1,2.1532287E-1,-2.3091604E-1,-1.5829649E-2,-4.755093E-1,3.7359717E-1,3.5386056E-2,-5.7299126E-2,-3.4661812E-1],"split_indices":[73,71,2,74,0,2,7,75,23,10,3,4,11,11,9,77,43,6,2,4,9,9,3,10,5,0,0,7,6,5,4,76,0,4,0,13,10,7,11,5,0,11,0,11,2,5,3,10,48,2,2,6,4,3,3,2,3,0,0,11,10,0,0,0,0,0,0,0,0,0,0,0,0,0,0,0,0,0,0,0,0,0,0,0,0,0,0,0,0,0,0,0,0,0,0,0,0,0,0,0,0,0,0,0,0,0,0,0,0],"split_type":[0,0,0,0,0,0,0,0,0,0,0,0,0,0,0,0,0,0,0,0,0,0,0,0,0,0,0,0,0,0,0,0,0,0,0,0,0,0,0,0,0,0,0,0,0,0,0,0,0,0,0,0,0,0,0,0,0,0,0,0,0,0,0,0,0,0,0,0,0,0,0,0,0,0,0,0,0,0,0,0,0,0,0,0,0,0,0,0,0,0,0,0,0,0,0,0,0,0,0,0,0,0,0,0,0,0,0,0,0],"sum_hessian":[2.625609E3,2.0363907E3,5.8921826E2,1.4138768E3,6.2251385E2,5.343643E2,5.4853996E1,8.02894E2,6.109829E2,1.9202843E1,6.03311E2,5.087094E2,2.5654879E1,3.9207886E1,1.564611E1,2.037665E2,5.9912744E2,5.740404E2,3.6942497E1,1.1316005E1,7.886837E0,4.3944115E1,5.593669E2,3.9287704E2,1.15832375E2,2.4298412E1,1.3564663E0,2.298011E1,1.6227777E1,3.5014935E0,1.2144616E1,1.965741E2,7.1923933E0,5.9768634E2,1.4411228E0,1.847991E2,3.8924127E2,2.1478842E1,1.5463655E1,9.727505E0,1.5885003E0,5.259241E0,2.627596E0,2.9405725E1,1.4538389E1,5.8213814E1,5.0115308E2,1.48106985E1,3.7806635E2,1.11722694E2,4.109681E0,1.9978008E1,4.3204055E0,2.0218275E1,2.7618365E0,3.2880821E0,1.2939694E1,1.6451178E0,1.8563757E0,9.983256E0,2.1613603E0,1.9095377E2,5.620334E0,4.77949E1,5.498914E2,1.5954866E2,2.5250443E1,3.428983E2,4.6342995E1,1.9710463E0,1.9507795E1,8.084291E0,7.379364E0,2.1299827E0,7.597522E0,2.321838E0,2.9374032E0,1.2751635E1,1.6654093E1,5.5977907E0,8.9405985E0,4.2169323E0,5.3996883E1,1.2978005E1,4.8817505E2,4.944312E0,9.866386E0,2.4463351E2,1.3343283E2,8.703941E1,2.468328E1,2.7868977E0,1.3227836E0,1.769826E1,2.279749E0,2.272614E0,2.0477912E0,1.916899E1,1.0492859E0,1.109315E0,1.6525215E0,2.2812934E0,1.0067887E0,1.2474858E0,1.1692209E1,3.7169032E0,6.2663527E0,1.0830841E0,1.0782762E0],"tree_param":{"num_deleted":"0","num_feature":"78","num_nodes":"109","size_leaf_vector":"1"}},{"base_weights":[4.492972E-3,7.360867E-3,-2.666659E-1,1.5417712E-2,-2.750911E-1,-2.4176937E-2,6.83486E-2,6.9723666E-1,-4.2373988E-1,2.3443352E-2,-1.3123955E-1,1.2487668E-1,-4.6959978E-2,8.534525E-1,-6.3062154E-2,-1.4225464E0,-2.6172864E-1,5.6040216E-2,-2.7027217E-1,2.9493245E-1,-1.6717504E-1,1.3866077E-1,-3.5247985E-1,1.8557906E-2,-4.1833812E-1,3.0085722E-1,6.752475E-2,1.2172321E-2,-1.9999921E0,-3.6292183E-1,9.1447985E-1,2.2455918E-2,-1.11433126E-1,-3.4088998E-3,-1.6767329E-1,1.9641526E-2,3.3226418E-1,-2.7421942E-2,-1.0480757E-1,1.6861103E-1,3.746029E-2,-1.3486613E-2,-3.5251695E-1,-1.3343988E-1,2.2713993E-2,-5.613713E-2,-3.7923068E-1,-2.4123132E-1,2.0835842E-1,-1.2862161E-1,-7.164039E-1,-8.146691E-2,-5.5903494E-1,3.8577473E-1,-6.0534764E-2],"categories":[],"categories_nodes":[],"categories_segments":[],"categories_sizes":[],"default_left":[0,0,0,0,0,0,0,0,0,0,0,0,0,0,0,0,0,0,0,0,0,0,0,0,0,0,0,0,0,0,0,0,0,0,0,0,0,0,0,0,0,0,0,0,0,0,0,0,0,0,0,0,0,0,0],"id":22,"left_children":[1,3,-1,5,7,9,11,13,15,17,19,21,23,25,-1,27,29,31,33,35,37,39,41,43,45,-1,-1,47,49,51,53,-1,-1,-1,-1,-1,-1,-1,-1,-1,-1,-1,-1,-1,-1,-1,-1,-1,-1,-1,-1,-1,-1,-1,-1],"loss_changes":[6.6828027E0,5.917372E0,0E0,5.2983065E0,1.0718798E1,7.377961E0,7.057042E0,1.5886221E0,9.850554E0,9.608965E0,6.8716154E0,4.827095E0,8.6843E0,5.890446E-1,0E0,7.1423016E0,6.947674E0,7.2881107E0,7.4870267E0,6.4544086E0,5.6479187E0,4.055665E0,5.1741233E0,8.086564E0,1.0228978E1,0E0,0E0,2.4854198E0,2.714779E0,6.608752E0,2.2029328E0,0E0,0E0,0E0,0E0,0E0,0E0,0E0,0E0,0E0,0E0,0E0,0E0,0E0,0E0,0E0,0E0,0E0,0E0,0E0,0E0,0E0,0E0,0E0,0E0],"parents":[2147483647,0,0,1,1,3,3,4,4,5,5,6,6,7,7,8,8,9,9,10,10,11,11,12,12,13,13,15,15,16,16,17,17,18,18,19,19,20,20,21,21,22,22,23,23,24,24,27,27,28,28,29,29,30,30],"right_children":[2,4,-1,6,8,10,12,14,16,18,20,22,24,26,-1,28,30,32,34,36,38,40,42,44,46,-1,-1,48,50,52,54,-1,-1,-1,-1,-1,-1,-1,-1,-1,-1,-1,-1,-1,-1,-1,-1,-1,-1,-1,-1,-1,-1,-1,-1],"split_conditions":[1E0,6.944557E-1,-2.666659E-1,3.0769232E-1,2.7930763E-1,1E0,1E0,5.5128205E-1,3.2887492E-1,9.137931E-1,1.3698907E-1,7.54524E-1,1E0,1E0,-6.3062154E-2,7.254148E-1,7.7380013E-1,1E0,1.897436E-1,4.1541424E-1,6.8471617E-1,6.368255E-2,7.1282053E-1,1.1566993E-1,5.4006475E-1,3.0085722E-1,6.752475E-2,1.350906E-1,2.820513E-1,6.4102566E-1,2.7512357E-1,2.2455918E-2,-1.11433126E-1,-3.4088998E-3,-1.6767329E-1,1.9641526E-2,3.3226418E-1,-2.7421942E-2,-1.0480757E-1,1.6861103E-1,3.746029E-2,-1.3486613E-2,-3.5251695E-1,-1.3343988E-1,2.2713993E-2,-5.613713E-2,-3.7923068E-1,-2.4123132E-1,2.0835842E-1,-1.2862161E-1,-7.164039E-1,-8.146691E-2,-5.5903494E-1,3.8577473E-1,-6.0534764E-2],"split_indices":[70,5,0,11,2,1,68,11,2,6,5,2,13,74,0,5,2,18,0,3,10,3,0,3,5,0,0,4,7,11,4,0,0,0,0,0,0,0,0,0,0,0,0,0,0,0,0,0,0,0,0,0,0,0,0],"split_type":[0,0,0,0,0,0,0,0,0,0,0,0,0,0,0,0,0,0,0,0,0,0,0,0,0,0,0,0,0,0,0,0,0,0,0,0,0,0,0,0,0,0,0,0,0,0,0,0,0,0,0,0,0,0,0],"sum_hessian":[2.6047578E3,2.5974116E3,7.3463597E0,2.5262952E3,7.111628E1,1.4455232E3,1.0807721E3,8.941096E0,6.2175182E1,1.00104865E3,4.4447452E2,7.251813E2,3.5559085E2,7.67871E0,1.2623862E0,7.5916677E0,5.4583515E1,9.017776E2,9.927104E1,3.4003807E1,4.104707E2,7.055183E2,1.9662943E1,3.0307324E2,5.251762E1,5.722201E0,1.956509E0,2.4595652E0,5.1321025E0,5.089619E1,3.687324E0,8.6455493E2,3.722269E1,5.287842E1,4.6392616E1,2.7358942E1,6.644864E0,2.909633E2,1.1950742E2,2.1005766E1,6.845126E2,1.5079898E1,4.5830455E0,3.25345E1,2.7053873E2,4.220178E1,1.0315843E1,1.0386468E0,1.4209185E0,1.4332458E0,3.6988566E0,4.9088238E1,1.8079543E0,2.6526668E0,1.0346572E0],"tree_param":{"num_deleted":"0","num_feature":"78","num_nodes":"55","size_leaf_vector":"1"}},{"base_weights":[3.4741636E-3,5.9221253E-2,-3.443023E-2,1.1869398E-1,-4.3612067E-2,-6.4462356E-2,1.1775213E-1,1.4489716E-1,-2.9729524E-1,2.725192E-2,-2.560322E-1,-4.8921917E-2,-3.8189298E-1,1.7526157E-1,-2.3167734E-1,-2.6167914E-1,1.7670415E-1,-8.5565525E-1,-2.302212E-3,-4.895681E-2,3.7712085E-1,-6.736692E-1,-1.9001078E-2,-7.8053586E-2,6.8156466E-2,-9.396008E-1,-1.5906444E-1,-1.21941574E-1,2.5567043E-1,-5.5249447E-1,2.709792E-1,-6.595879E-1,2.2571261E-1,2.2845274E-1,9.228101E-3,-4.565157E-2,-1.5261934E0,-1.0087988E0,1.5178567E-1,3.9342213E-2,-3.23312E-1,4.6813235E-1,-4.995003E-1,2.1270366E-1,-8.493946E-1,-4.7641796E-1,1.3023749E-1,-2.4552753E-2,-1.6955991E-1,1.5408483E-1,-3.4230268E-1,-1.1220497E0,7.963056E-2,-2.6911506E-2,-1.1388677E0,-2.6280317E-2,-1.4533955E0,1.7125623E-1,4.729211E-1,-1.1103524E0,2.5775766E-1,4.1881508E-1,-1.669854E-1,-3.8507056E-1,-5.5740982E-2,1.2133514E-1,-2.0330097E-1,5.1791344E-2,1.3220845E-1,1.7827305E-1,-1.5444982E-2,2.1251701E-1,-1.6844535E-1,7.153927E-2,-5.530128E-1,-2.7485026E-2,-4.083196E-1,1.2282731E-1,-1.619961E-1,1.8750332E-2,-3.3298868E-1,-2.328843E-1,7.0605525E-3,1.6678664E-1,-9.034594E-2,-4.4779417E-1,2.663627E-1,2.076123E-1,-3.6375785E-1,-3.4841466E-1,-1.061294E-1,-2.681612E-1,1.4436093E-1,-1.869817E-1,8.120449E-2,-4.094972E-2,1.0404087E-2,-2.4399037E-2,-1.8322396E-1,-4.025798E-3,1.09196864E-1,-4.8429617E-1,-7.307667E-2,-3.8215172E-1,8.173808E-2,-8.162142E-2,1.6912436E-1,-4.9481812E-1,-3.400059E-2,-6.225801E-2,2.1641766E-1,-1.08127974E-1,-5.626647E-1,2.0624618E-1,3.0106893E-2,1.564202E-1,-2.2915393E-1,-4.654043E-1,-9.520265E-2,1.8136065E-1,-1.7475593E-1,-1.3235317E-1,1.6678423E-1],"categories":[],"categories_nodes":[],"categories_segments":[],"categories_sizes":[],"default_left":[0,0,0,0,0,0,0,0,0,0,0,0,0,0,0,0,0,0,0,0,0,0,0,0,0,0,0,0,0,0,0,0,0,0,0,0,0,0,0,0,0,0,0,0,0,0,0,0,0,0,0,0,0,0,0,0,0,0,0,0,0,0,0,0,0,0,0,0,0,0,0,0,0,0,0,0,0,0,0,0,0,0,0,0,0,0,0,0,0,0,0,0,0,0,0,0,0,0,0,0,0,0,0,0,0,0,0,0,0,0,0,0,0,0,0,0,0,0,0,0,0,0,0],"id":23,"left_children":[1,3,5,7,9,11,13,15,17,19,21,23,25,27,29,31,33,35,37,39,41,43,45,47,49,51,53,55,57,59,61,63,65,67,69,71,73,75,77,79,81,83,85,87,89,91,93,95,97,99,101,103,-1,105,107,109,111,113,115,117,119,121,-1,-1,-1,-1,-1,-1,-1,-1,-1,-1,-1,-1,-1,-1,-1,-1,-1,-1,-1,-1,-1,-1,-1,-1,-1,-1,-1,-1,-1,-1,-1,-1,-1,-1,-1,-1,-1,-1,-1,-1,-1,-1,-1,-1,-1,-1,-1,-1,-1,-1,-1,-1,-1,-1,-1,-1,-1,-1,-1,-1,-1],"loss_changes":[5.4759765E0,6.419738E0,7.0581603E0,7.2895403E0,5.8032017E0,6.340262E0,5.1571803E0,8.142642E0,6.5407205E0,7.7410855E0,9.531965E0,4.200614E0,7.30894E0,5.2695675E0,6.0217266E0,9.036681E0,5.035368E0,7.3868847E0,4.339479E0,5.7957263E0,4.3761277E0,5.6136065E0,4.3311577E0,4.820167E0,8.715576E0,4.019952E0,5.6778326E0,5.9931655E0,3.0888453E0,1.0481644E1,2.050868E0,7.295738E0,3.7203197E0,5.183676E0,4.9407377E0,3.217141E0,4.6263313E0,1.0754671E0,4.548206E0,4.8999233E0,9.167069E0,3.3801336E0,8.7205105E0,5.3280396E0,4.1213303E0,6.6660805E0,5.241887E0,4.1359386E0,1.4096263E1,7.1699867E0,4.9845047E0,3.499878E0,0E0,5.92695E0,2.5436177E0,6.2746015E0,7.800698E-1,4.544416E0,3.2642298E0,4.245268E0,3.2686694E0,1.7991567E0,0E0,0E0,0E0,0E0,0E0,0E0,0E0,0E0,0E0,0E0,0E0,0E0,0E0,0E0,0E0,0E0,0E0,0E0,0E0,0E0,0E0,0E0,0E0,0E0,0E0,0E0,0E0,0E0,0E0,0E0,0E0,0E0,0E0,0E0,0E0,0E0,0E0,0E0,0E0,0E0,0E0,0E0,0E0,0E0,0E0,0E0,0E0,0E0,0E0,0E0,0E0,0E0,0E0,0E0,0E0,0E0,0E0,0E0,0E0,0E0,0E0],"parents":[2147483647,0,0,1,1,2,2,3,3,4,4,5,5,6,6,7,7,8,8,9,9,10,10,11,11,12,12,13,13,14,14,15,15,16,16,17,17,18,18,19,19,20,20,21,21,22,22,23,23,24,24,25,25,26,26,27,27,28,28,29,29,30,30,31,31,32,32,33,33,34,34,35,35,36,36,37,37,38,38,39,39,40,40,41,41,42,42,43,43,44,44,45,45,46,46,47,47,48,48,49,49,50,50,51,51,53,53,54,54,55,55,56,56,57,57,58,58,59,59,60,60,61,61],"right_children":[2,4,6,8,10,12,14,16,18,20,22,24,26,28,30,32,34,36,38,40,42,44,46,48,50,52,54,56,58,60,62,64,66,68,70,72,74,76,78,80,82,84,86,88,90,92,94,96,98,100,102,104,-1,106,108,110,112,114,116,118,120,122,-1,-1,-1,-1,-1,-1,-1,-1,-1,-1,-1,-1,-1,-1,-1,-1,-1,-1,-1,-1,-1,-1,-1,-1,-1,-1,-1,-1,-1,-1,-1,-1,-1,-1,-1,-1,-1,-1,-1,-1,-1,-1,-1,-1,-1,-1,-1,-1,-1,-1,-1,-1,-1,-1,-1,-1,-1,-1,-1,-1,-1],"split_conditions":[2.3076923E-1,1E0,3.9456344E-1,6.7387885E-1,4.6666667E-1,1E0,8.2758623E-1,8.15486E-2,7.413793E-1,2.792422E-1,1E0,4.6153846E-1,3.3893162E-1,3.484716E-1,4.6184108E-1,3.88102E-1,1E0,2.1794872E-1,6.7819245E-3,1E0,5.771046E-1,2.3231441E-1,3.6247054E-1,4.7713476E-1,1.13884844E-1,1E0,1.2824515E-1,1E0,1.6848215E-1,8.6206895E-1,6.9834304E-1,4.5938864E-1,6.483205E-1,3.05799E-1,1.062603E-1,2.7579927E-1,1.7562209E-2,7.336245E-2,2.0512821E-1,1E0,1.8012287E-1,1.10976584E-1,3.9275628E-2,1E0,6.840251E-2,4.3154997E-1,1.6666667E-1,2.5641027E-1,2.792422E-1,4.7450426E-1,2.8773776E-1,4.6153846E-1,7.963056E-2,5.1809597E-1,5.611089E-1,7.9310346E-1,2.8733623E-1,1.9121814E-1,1E0,8.619802E-2,5.633188E-1,2.6923078E-1,-1.669854E-1,-3.8507056E-1,-5.5740982E-2,1.2133514E-1,-2.0330097E-1,5.1791344E-2,1.3220845E-1,1.7827305E-1,-1.5444982E-2,2.1251701E-1,-1.6844535E-1,7.153927E-2,-5.530128E-1,-2.7485026E-2,-4.083196E-1,1.2282731E-1,-1.619961E-1,1.8750332E-2,-3.3298868E-1,-2.328843E-1,7.0605525E-3,1.6678664E-1,-9.034594E-2,-4.4779417E-1,2.663627E-1,2.076123E-1,-3.6375785E-1,-3.4841466E-1,-1.061294E-1,-2.681612E-1,1.4436093E-1,-1.869817E-1,8.120449E-2,-4.094972E-2,1.0404087E-2,-2.4399037E-2,-1.8322396E-1,-4.025798E-3,1.09196864E-1,-4.8429617E-1,-7.307667E-2,-3.8215172E-1,8.173808E-2,-8.162142E-2,1.6912436E-1,-4.9481812E-1,-3.400059E-2,-6.225801E-2,2.1641766E-1,-1.08127974E-1,-5.626647E-1,2.0624618E-1,3.0106893E-2,1.564202E-1,-2.2915393E-1,-4.654043E-1,-9.520265E-2,1.8136065E-1,-1.7475593E-1,-1.3235317E-1,1.6678423E-1],"split_indices":[7,48,4,2,0,30,6,4,6,4,12,11,5,10,2,5,71,11,9,73,2,10,3,5,9,13,9,24,9,6,3,10,5,4,4,5,9,10,7,36,3,9,9,8,9,2,11,11,4,5,5,7,0,2,5,6,10,5,19,9,10,0,0,0,0,0,0,0,0,0,0,0,0,0,0,0,0,0,0,0,0,0,0,0,0,0,0,0,0,0,0,0,0,0,0,0,0,0,0,0,0,0,0,0,0,0,0,0,0,0,0,0,0,0,0,0,0,0,0,0,0,0,0],"split_type":[0,0,0,0,0,0,0,0,0,0,0,0,0,0,0,0,0,0,0,0,0,0,0,0,0,0,0,0,0,0,0,0,0,0,0,0,0,0,0,0,0,0,0,0,0,0,0,0,0,0,0,0,0,0,0,0,0,0,0,0,0,0,0,0,0,0,0,0,0,0,0,0,0,0,0,0,0,0,0,0,0,0,0,0,0,0,0,0,0,0,0,0,0,0,0,0,0,0,0,0,0,0,0,0,0,0,0,0,0,0,0,0,0,0,0,0,0,0,0,0,0,0,0],"sum_hessian":[2.5895269E3,1.0478545E3,1.5416725E3,6.637984E2,3.8405606E2,1.2880593E3,2.5361316E2,6.250765E2,3.8721924E1,2.8863745E2,9.541861E1,1.2290432E3,5.9016113E1,2.1820003E2,3.5413136E1,4.4828197E1,5.802483E2,1.2728654E1,2.5993273E1,2.3771767E2,5.0919785E1,3.3880585E1,6.153802E1,9.84429E2,2.4461418E2,1.592969E1,4.3086422E1,4.635362E1,1.718464E2,2.155601E1,1.3857126E1,2.4485128E1,2.0343067E1,4.4300092E2,1.3724738E2,6.248548E0,6.480106E0,2.7146127E0,2.327866E1,1.8048624E2,5.723144E1,4.655263E1,4.367151E0,5.5707655E0,2.830982E1,1.4599171E1,4.693885E1,6.220213E2,3.6240768E2,2.0278613E2,4.182805E1,1.3894808E1,2.034882E0,3.8871075E1,4.215348E0,4.4197865E1,2.1557553E0,1.2504689E2,4.6799515E1,1.2547019E1,9.008991E0,1.2176028E1,1.6810979E0,9.829874E0,1.4655254E1,1.7443996E1,2.8990715E0,3.5219492E2,9.080601E1,1.2077778E1,1.2516959E2,2.386574E0,3.861974E0,1.0250999E0,5.4550056E0,1.1029594E0,1.6116533E0,1.7258999E1,6.0196614E0,1.7784814E2,2.6380854E0,2.4281996E1,3.2949448E1,4.203154E1,4.5210915E0,2.5009668E0,1.8661839E0,4.5536904E0,1.0170747E0,1.6549225E1,1.1760596E1,1.0213433E1,4.385738E0,6.8341985E0,4.0104652E1,2.1478612E2,4.0723517E2,3.0299768E2,5.9410023E1,1.1330483E2,8.94813E1,1.9065725E0,3.992148E1,1.26088915E1,1.2859166E0,2.7850702E1,1.1020374E1,2.4081864E0,1.8071615E0,3.615566E1,8.042206E0,1.1171638E0,1.0385915E0,1.4050067E1,1.10996826E2,4.559083E1,1.20868E0,7.4485707E0,5.0984483E0,6.5757627E0,2.433228E0,1.3696202E0,1.0806408E1],"tree_param":{"num_deleted":"0","num_feature":"78","num_nodes":"123","size_leaf_vector":"1"}},{"base_weights":[3.1155043E-3,5.8638155E-1,-2.234344E-4,2.5993374E-1,1.4514396E-1,1.9721244E-3,-2.5627622E-1,-3.7298197E-1,2.1845722E-1,4.1492674E-3,-2.5569957E-1,1.9032468E-1,-3.740261E-1,2.3148777E-1,-3.0771797E-3,-7.925036E-1,2.7968997E-1,1.960684E-3,-3.6201844E-1,1.988868E-1,-6.794261E-1,1.4530206E-1,2.1585451E-2,-2.452123E-2,7.045882E-3,-2.4500705E-1,-2.543002E-2],"categories":[],"categories_nodes":[],"categories_segments":[],"categories_sizes":[],"default_left":[0,0,0,0,0,0,0,0,0,0,0,0,0,0,0,0,0,0,0,0,0,0,0,0,0,0,0],"id":24,"left_children":[1,3,5,-1,7,9,-1,11,-1,13,-1,-1,-1,15,17,19,21,23,25,-1,-1,-1,-1,-1,-1,-1,-1],"loss_changes":[5.023156E0,1.688479E0,4.8122807E0,0E0,2.356523E0,4.7649293E0,0E0,4.5896525E0,0E0,4.1973E0,0E0,0E0,0E0,4.1066995E0,4.4794025E0,9.642821E0,3.1924129E0,4.4041815E0,4.252842E0,0E0,0E0,0E0,0E0,0E0,0E0,0E0,0E0],"parents":[2147483647,0,0,1,1,2,2,4,4,5,5,7,7,9,9,13,13,14,14,15,15,16,16,17,17,18,18],"right_children":[2,4,6,-1,8,10,-1,12,-1,14,-1,-1,-1,16,18,20,22,24,26,-1,-1,-1,-1,-1,-1,-1,-1],"split_conditions":[4.602675E-2,1E0,1E0,2.5993374E-1,6.719576E-2,1E0,-2.5627622E-1,3.103354E-2,2.1845722E-1,4.940395E-2,-2.5569957E-1,1.9032468E-1,-3.740261E-1,1.01494886E-1,1E0,8.6152636E-2,7.9310346E-1,1.4274299E-1,7.413793E-1,1.988868E-1,-6.794261E-1,1.4530206E-1,2.1585451E-2,-2.452123E-2,7.045882E-3,-2.4500705E-1,-2.543002E-2],"split_indices":[2,48,70,0,9,77,0,9,0,3,0,0,0,2,60,2,6,4,6,0,0,0,0,0,0,0,0],"split_type":[0,0,0,0,0,0,0,0,0,0,0,0,0,0,0,0,0,0,0,0,0,0,0,0,0,0,0],"sum_hessian":[2.578231E3,1.3681289E1,2.5645496E3,7.7796702E0,5.901618E0,2.5589685E3,5.5809565E0,3.3155417E0,2.5860763E0,2.5534563E3,5.5121894E0,1.6672517E0,1.6482902E0,7.771049E1,2.4757458E3,2.7994163E0,7.491107E1,2.4424597E3,3.3286224E1,1.6841611E0,1.1152551E0,3.70653E1,3.784577E1,4.9908118E2,1.9433785E3,1.1871766E1,2.1414457E1],"tree_param":{"num_deleted":"0","num_feature":"78","num_nodes":"27","size_leaf_vector":"1"}},{"base_weights":[2.2016964E-3,2.2162904E-4,2.5108516E-1,1.3139841E-1,-1.15886945E-2,-1.954049E-1,2.3306295E-1,1.7099714E-1,-2.169261E-2,7.506799E-2,-6.6548926E-1,4.7796914E-1,1.0837117E-1,2.0256792E-1,-8.953683E-1,-4.2585823E-1,-1.7012376E-2,4.7939816E-1,-3.9191276E-1,-1.2223556E0,8.952387E-2,-3.990661E-1,6.557986E-1,2.7701005E-1,-1.5514016E-1,4.2028415E-1,3.172615E-2,-4.4116625E-3,-4.5540544E-1,-8.2635474E-1,2.5593925E-1,2.1565722E-2,-6.9873E-2,2.2882105E-1,-1.2170256E-1,-2.7461326E-1,2.3536244E-2,3.340769E-2,-4.5515805E-1,2.8559518E-1,-3.2600385E-1,3.5801407E-2,-5.120827E-1,2.2737473E-1,6.404786E-2,2.0103525E-1,-2.6717767E-2,-9.176058E-2,1.1527018E-1,1.4785834E-1,-3.200838E-1,-3.157704E-1,4.1121837E-2,3.705217E-2,-3.126766E-1,2.6859483E-1,-3.711664E-2,3.820129E-2,-4.226653E-3,-2.3844445E-2,1.13504484E-1],"categories":[],"categories_nodes":[],"categories_segments":[],"categories_sizes":[],"default_left":[0,0,0,0,0,0,0,0,0,0,0,0,0,0,0,0,0,0,0,0,0,0,0,0,0,0,0,0,0,0,0,0,0,0,0,0,0,0,0,0,0,0,0,0,0,0,0,0,0,0,0,0,0,0,0,0,0,0,0,0,0],"id":25,"left_children":[1,3,-1,5,7,9,11,13,15,17,19,21,23,25,27,29,31,33,35,37,39,41,43,45,47,49,51,-1,-1,53,55,57,59,-1,-1,-1,-1,-1,-1,-1,-1,-1,-1,-1,-1,-1,-1,-1,-1,-1,-1,-1,-1,-1,-1,-1,-1,-1,-1,-1,-1],"loss_changes":[4.250109E0,3.9774866E0,0E0,7.0910196E0,4.348912E0,6.5165443E0,4.901371E0,4.3430777E0,4.216146E0,6.453317E0,7.9619627E0,8.750408E0,4.8765364E0,4.4827433E0,2.0279796E0,7.1791854E0,4.504612E0,4.88214E0,3.9987185E0,4.422579E0,1.0022047E1,6.8462467E0,1.8991909E0,9.655755E0,3.6204276E0,6.253765E0,8.0044565E0,0E0,0E0,3.4737682E0,2.5882545E0,4.818904E0,4.0434213E0,0E0,0E0,0E0,0E0,0E0,0E0,0E0,0E0,0E0,0E0,0E0,0E0,0E0,0E0,0E0,0E0,0E0,0E0,0E0,0E0,0E0,0E0,0E0,0E0,0E0,0E0,0E0,0E0],"parents":[2147483647,0,0,1,1,3,3,4,4,5,5,6,6,7,7,8,8,9,9,10,10,11,11,12,12,13,13,14,14,15,15,16,16,17,17,18,18,19,19,20,20,21,21,22,22,23,23,24,24,25,25,26,26,29,29,30,30,31,31,32,32],"right_children":[2,4,-1,6,8,10,12,14,16,18,20,22,24,26,28,30,32,34,36,38,40,42,44,46,48,50,52,-1,-1,54,56,58,60,-1,-1,-1,-1,-1,-1,-1,-1,-1,-1,-1,-1,-1,-1,-1,-1,-1,-1,-1,-1,-1,-1,-1,-1,-1,-1,-1,-1],"split_conditions":[1E0,1.2820514E-1,2.5108516E-1,9.674097E-3,1.3698907E-1,1E0,3.2297403E-1,1E0,1.4933226E-1,1.3333334E-1,1.02564104E-1,9.728043E-2,1E0,2.0512821E-1,8.2758623E-1,2.9987833E-1,1E0,6.7819245E-3,2.0892578E-1,7.0689654E-1,2.845002E-1,8.979578E-2,7.432314E-1,1E0,1E0,9.892519E-2,1.1861614E-1,-4.4116625E-3,-4.5540544E-1,7.0689654E-1,3.8220757E-1,3.720524E-1,1E0,2.2882105E-1,-1.2170256E-1,-2.7461326E-1,2.3536244E-2,3.340769E-2,-4.5515805E-1,2.8559518E-1,-3.2600385E-1,3.5801407E-2,-5.120827E-1,2.2737473E-1,6.404786E-2,2.0103525E-1,-2.6717767E-2,-9.176058E-2,1.1527018E-1,1.4785834E-1,-3.200838E-1,-3.157704E-1,4.1121837E-2,3.705217E-2,-3.126766E-1,2.6859483E-1,-3.711664E-2,3.820129E-2,-4.226653E-3,-2.3844445E-2,1.13504484E-1],"split_indices":[72,7,0,9,5,51,2,56,5,0,7,3,48,11,6,4,68,9,3,6,5,3,10,49,71,9,4,0,0,6,4,10,17,0,0,0,0,0,0,0,0,0,0,0,0,0,0,0,0,0,0,0,0,0,0,0,0,0,0,0,0],"split_type":[0,0,0,0,0,0,0,0,0,0,0,0,0,0,0,0,0,0,0,0,0,0,0,0,0,0,0,0,0,0,0,0,0,0,0,0,0,0,0,0,0,0,0,0,0,0,0,0,0,0,0,0,0,0,0,0,0,0,0,0,0],"sum_hessian":[2.5704807E3,2.5653958E3,5.084986E0,2.1105794E2,2.354338E3,4.9859905E1,1.6119804E2,1.2261751E2,2.2317202E3,3.2183033E1,1.7676872E1,5.3427765E1,1.0777028E2,1.19878426E2,2.7390776E0,2.4517296E1,2.2072031E3,1.7234306E1,1.4948727E1,9.817159E0,7.8597145E0,8.797141E0,4.4630623E1,6.568362E1,4.2086655E1,5.2066357E1,6.781207E1,1.5584526E0,1.1806248E0,1.5311251E1,9.206046E0,1.2763239E3,9.308792E2,1.3159709E1,4.0745974E0,6.627255E0,8.321471E0,1.8899907E0,7.927168E0,4.6446323E0,3.2150824E0,6.9508004E0,1.8463409E0,3.5679565E1,8.9510565E0,3.127165E1,3.4411972E1,3.323268E1,8.853974E0,5.0281235E1,1.7851242E0,5.2087584E0,6.2603313E1,2.9149172E0,1.2396333E1,2.9238603E0,6.282186E0,3.2112152E2,9.552023E2,9.1214825E2,1.8730978E1],"tree_param":{"num_deleted":"0","num_feature":"78","num_nodes":"61","size_leaf_vector":"1"}},{"base_weights":[2.626091E-3,4.412927E-3,-2.4742782E-1,2.5476197E-2,-6.5984495E-2,5.936914E-2,-5.0544508E-2,-8.0985315E-2,5.671973E-1,1.4706098E-1,-4.491345E-2,4.7403505E-1,-6.50873E-2,2.756261E-1,-1.0624339E-1,-2.7375498E-1,7.5882787E-1,9.275083E-1,-4.7928013E-2,-5.6644738E-2,3.7201634E-1,-1.5147913E-1,7.5049114E-1,-1.0250288E0,-5.059897E-2,-2.4923475E-1,4.7450265E-1,-1.1481725E-1,8.141864E-1,1.5039422E-1,2.8969055E-1,2.963463E-1,-2.4676299E-1,-1.5886227E-2,3.5506707E-1,-9.348482E-3,-8.079059E-2,1.6712056E-1,-2.9814845E-1,-2.4417628E-1,2.3130135E-1,2.6348493E-1,6.193775E-3,1.9343624E-1,-4.109029E-1,-6.2094294E-2,4.1724676E-3,-2.9422686E-1,1.1238242E-1,2.1068405E-1,2.9850682E-2,-2.4082383E-2,-1.553677E-1,4.3197468E-2,2.839229E-1,2.1595956E-1,-1.9767638E-1],"categories":[],"categories_nodes":[],"categories_segments":[],"categories_sizes":[],"default_left":[0,0,0,0,0,0,0,0,0,0,0,0,0,0,0,0,0,0,0,0,0,0,0,0,0,0,0,0,0,0,0,0,0,0,0,0,0,0,0,0,0,0,0,0,0,0,0,0,0,0,0,0,0,0,0,0,0],"id":26,"left_children":[1,3,-1,5,7,9,11,13,15,17,19,21,23,25,27,-1,29,31,33,35,37,39,41,43,45,47,49,51,53,55,-1,-1,-1,-1,-1,-1,-1,-1,-1,-1,-1,-1,-1,-1,-1,-1,-1,-1,-1,-1,-1,-1,-1,-1,-1,-1,-1],"loss_changes":[3.7936325E0,3.7962308E0,0E0,5.07992E0,5.6463184E0,1.2473455E1,4.6702538E0,5.225173E0,4.597189E0,1.12775925E2,3.0706823E0,2.9713461E0,8.190173E0,4.130004E0,4.3503847E0,0E0,1.45753E0,1.644783E1,3.737105E0,3.2826877E0,4.899865E0,4.2311945E0,1.0664048E0,5.92414E0,5.902749E0,5.486186E0,2.34027E0,7.411798E0,3.1583548E-1,2.5094543E0,0E0,0E0,0E0,0E0,0E0,0E0,0E0,0E0,0E0,0E0,0E0,0E0,0E0,0E0,0E0,0E0,0E0,0E0,0E0,0E0,0E0,0E0,0E0,0E0,0E0,0E0,0E0],"parents":[2147483647,0,0,1,1,3,3,4,4,5,5,6,6,7,7,8,8,9,9,10,10,11,11,12,12,13,13,14,14,16,16,17,17,18,18,19,19,20,20,21,21,22,22,23,23,24,24,25,25,26,26,27,27,28,28,29,29],"right_children":[2,4,-1,6,8,10,12,14,16,18,20,22,24,26,28,-1,30,32,34,36,38,40,42,44,46,48,50,52,54,56,-1,-1,-1,-1,-1,-1,-1,-1,-1,-1,-1,-1,-1,-1,-1,-1,-1,-1,-1,-1,-1,-1,-1,-1,-1,-1,-1],"split_conditions":[1E0,1E0,-2.4742782E-1,1E0,1E0,1E0,9.170306E-2,8.974359E-2,1.0214168E-1,1E0,2.040772E-1,1.5897858E-1,5.12868E-3,1.0214168E-1,7.9143286E-1,-2.7375498E-1,1.01494886E-1,1E0,1E0,6.4102566E-1,1E0,5.8515284E-2,1E0,4.8158642E-2,4.0611354E-1,5.445791E-2,6.70098E-2,5.547335E-1,6.3793105E-1,2.3525818E-1,2.8969055E-1,2.963463E-1,-2.4676299E-1,-1.5886227E-2,3.5506707E-1,-9.348482E-3,-8.079059E-2,1.6712056E-1,-2.9814845E-1,-2.4417628E-1,2.3130135E-1,2.6348493E-1,6.193775E-3,1.9343624E-1,-4.109029E-1,-6.2094294E-2,4.1724676E-3,-2.9422686E-1,1.1238242E-1,2.1068405E-1,2.9850682E-2,-2.4082383E-2,-1.553677E-1,4.3197468E-2,2.839229E-1,2.1595956E-1,-1.9767638E-1],"split_indices":[70,73,0,74,17,71,10,0,4,75,9,4,9,4,3,0,2,76,45,0,20,10,53,5,10,3,3,3,6,3,0,0,0,0,0,0,0,0,0,0,0,0,0,0,0,0,0,0,0,0,0,0,0,0,0,0,0],"split_type":[0,0,0,0,0,0,0,0,0,0,0,0,0,0,0,0,0,0,0,0,0,0,0,0,0,0,0,0,0,0,0,0,0,0,0,0,0,0,0,0,0,0,0,0,0,0,0,0,0,0,0,0,0,0,0,0,0],"sum_hessian":[2.5625737E3,2.558044E3,4.52973E0,1.9694211E3,5.886228E2,1.3622825E3,6.071387E2,5.7585223E2,1.277052E1,7.397838E2,6.2249866E2,1.5525234E1,5.916134E2,3.743307E1,5.384192E2,1.0329025E0,1.17376175E1,1.4713126E2,5.926525E2,6.063031E2,1.6195612E1,4.8970823E0,1.0628152E1,7.7593575E0,5.8385406E2,1.0216693E1,2.721638E1,5.3431726E2,4.1019435E0,3.41571E0,8.321908E0,1.4265057E2,4.4806733E0,5.9119666E2,1.4558573E0,5.424471E2,6.3855976E1,1.4784648E1,1.4109628E0,2.9187753E0,1.978307E0,8.87143E0,1.7567216E0,1.1785282E0,6.5808296E0,1.6986035E2,4.139937E2,4.439173E0,5.777519E0,1.6388912E1,1.0827468E1,4.9324628E2,4.107096E1,1.0201508E0,3.0817926E0,2.069818E0,1.3458918E0],"tree_param":{"num_deleted":"0","num_feature":"78","num_nodes":"57","size_leaf_vector":"1"}},{"base_weights":[4.5482162E-3,6.915166E-3,-2.5907508E-1,4.9053817E-3,7.1773094E-1,5.240556E-1,2.3650823E-3,-7.8627825E-2,9.200496E-1,7.6298726E-1,-9.472082E-3,-8.697662E-1,3.7597714E-3,3.053118E-1,6.9613E-2,1.2191586E-2,2.5996643E-1,-2.2928107E-1,2.0315613E-1,-3.9133385E-2,-3.557431E-1,6.92511E-1,2.0522126E-3,3.5493234E-3,3.1383023E-1,1.8563599E-3,-8.380526E-2],"categories":[],"categories_nodes":[],"categories_segments":[],"categories_sizes":[],"default_left":[0,0,0,0,0,0,0,0,0,0,0,0,0,0,0,0,0,0,0,0,0,0,0,0,0,0,0],"id":27,"left_children":[1,3,-1,5,7,9,11,-1,13,15,17,19,21,-1,-1,-1,-1,-1,-1,-1,-1,23,25,-1,-1,-1,-1],"loss_changes":[5.2428446E0,3.6288557E0,0E0,3.343856E0,1.6609063E0,1.5811143E0,3.0747154E0,0E0,1.775899E-1,6.0366344E-1,3.0087945E0,7.8835607E-1,2.9647696E0,0E0,0E0,0E0,0E0,0E0,0E0,0E0,0E0,1.4881179E0,2.930812E0,0E0,0E0,0E0,0E0],"parents":[2147483647,0,0,1,1,3,3,4,4,5,5,6,6,8,8,9,9,10,10,11,11,12,12,21,21,22,22],"right_children":[2,4,-1,6,8,10,12,-1,14,16,18,20,22,-1,-1,-1,-1,-1,-1,-1,-1,24,26,-1,-1,-1,-1],"split_conditions":[1E0,8.333333E-1,-2.5907508E-1,4.602675E-2,2.0004119E-1,3.411456E-1,2.0689656E-1,-7.8627825E-2,7.948718E-1,5.862069E-1,5.92634E-2,3.438685E-1,1E0,3.053118E-1,6.9613E-2,1.2191586E-2,2.5996643E-1,-2.2928107E-1,2.0315613E-1,-3.9133385E-2,-3.557431E-1,6.021271E-2,7.051282E-1,3.5493234E-3,3.1383023E-1,1.8563599E-3,-8.380526E-2],"split_indices":[77,11,0,2,4,3,6,0,7,6,9,3,64,0,0,0,0,0,0,0,0,9,11,0,0,0,0],"split_type":[0,0,0,0,0,0,0,0,0,0,0,0,0,0,0,0,0,0,0,0,0,0,0,0,0,0,0],"sum_hessian":[2.5475745E3,2.5416367E3,5.9377046E0,2.5354749E3,6.161986E0,1.13464775E1,2.5241284E3,1.0040334E0,5.1579523E0,7.539815E0,3.8066626E0,3.0359752E0,2.5210923E3,4.0971837E0,1.0607686E0,1.1200724E0,6.4197426E0,1.7595171E0,2.0471456E0,1.332231E0,1.7037442E0,5.2343597E0,2.515858E3,2.1428034E0,3.0915563E0,2.480383E3,3.547505E1],"tree_param":{"num_deleted":"0","num_feature":"78","num_nodes":"27","size_leaf_vector":"1"}},{"base_weights":[3.3786413E-3,5.2093295E-3,-2.4816395E-1,1.9143684E-3,3.6846182E-1,6.414281E-3,-5.103115E-1,6.213746E-1,-5.506597E-1,-7.3272694E-4,4.1141182E-1,6.854924E-1,-7.214849E-1,-3.16056E-1,7.9647255E-1,-8.4106094E-1,1.0972989E-1,2.1111357E-3,-4.4185624E-1,6.785996E-1,-3.3976597E-1,3.946995E-2,2.59661E-1,-1.1755124E0,-1.1522582E-1,-5.5277076E-2,8.9451367E-1,-3.9176637E-1,1.2595325E-2,1.0597004E-3,-2.3370782E-1,-4.4200546E-1,2.4328338E-2,-2.60228E-1,2.2704816E-1,1.7065597E-1,-2.1182807E-1,-1.1154653E-2,-5.049421E-1,-3.7458688E-1,1.0327132E-1,2.9382104E-1,-4.871248E-2],"categories":[],"categories_nodes":[],"categories_segments":[],"categories_sizes":[],"default_left":[0,0,0,0,0,0,0,0,0,0,0,0,0,0,0,0,0,0,0,0,0,0,0,0,0,0,0,0,0,0,0,0,0,0,0,0,0,0,0,0,0,0,0],"id":28,"left_children":[1,3,-1,5,7,9,11,13,15,17,19,21,23,-1,25,27,-1,29,31,33,35,-1,-1,37,39,-1,41,-1,-1,-1,-1,-1,-1,-1,-1,-1,-1,-1,-1,-1,-1,-1,-1],"loss_changes":[3.8726366E0,3.0387373E0,0E0,5.8062716E0,5.647339E0,7.226946E0,6.034138E0,6.2256494E0,1.759362E0,3.0799236E0,8.920408E0,2.6563263E-1,5.130699E0,0E0,1.8184595E0,1.8794951E0,0E0,2.711122E0,8.602616E0,4.5593424E0,4.404553E0,0E0,0E0,6.1958447E0,5.273404E0,0E0,1.5771294E0,0E0,0E0,0E0,0E0,0E0,0E0,0E0,0E0,0E0,0E0,0E0,0E0,0E0,0E0,0E0,0E0],"parents":[2147483647,0,0,1,1,3,3,4,4,5,5,6,6,7,7,8,8,9,9,10,10,11,11,12,12,14,14,15,15,17,17,18,18,19,19,20,20,23,23,24,24,26,26],"right_children":[2,4,-1,6,8,10,12,14,16,18,20,22,24,-1,26,28,-1,30,32,34,36,-1,-1,38,40,-1,42,-1,-1,-1,-1,-1,-1,-1,-1,-1,-1,-1,-1,-1,-1,-1,-1],"split_conditions":[1E0,7.692308E-1,-2.4816395E-1,7.051282E-1,5.350118E-1,6.282051E-1,3.0769232E-1,1.3920923E-1,8.458098E-2,6.666667E-1,6E-1,2.5641027E-1,4.6184108E-1,-3.16056E-1,1.2470496E-1,2.9571664E-1,1.0972989E-1,1E0,3.0448467E-1,1.1053813E-2,4.3589744E-1,3.946995E-2,2.59661E-1,2.7419356E-1,2.2981878E-1,-5.5277076E-2,6.7887497E-1,-3.9176637E-1,1.2595325E-2,1.0597004E-3,-2.3370782E-1,-4.4200546E-1,2.4328338E-2,-2.60228E-1,2.2704816E-1,1.7065597E-1,-2.1182807E-1,-1.1154653E-2,-5.049421E-1,-3.7458688E-1,1.0327132E-1,2.9382104E-1,-4.871248E-2],"split_indices":[77,11,0,11,2,11,7,4,9,7,0,7,2,0,2,4,0,70,2,9,7,0,0,2,4,0,5,0,0,0,0,0,0,0,0,0,0,0,0,0,0,0,0],"split_type":[0,0,0,0,0,0,0,0,0,0,0,0,0,0,0,0,0,0,0,0,0,0,0,0,0,0,0,0,0,0,0,0,0,0,0,0,0,0,0,0,0,0,0],"sum_hessian":[2.543024E3,2.5384229E3,4.6011505E0,2.5166006E3,2.1822107E1,2.4956638E3,2.093697E1,1.7367167E1,4.454941E0,2.4533672E3,4.229648E1,2.8053133E0,1.8131657E1,1.168941E0,1.6198225E1,3.4453886E0,1.0095524E0,2.4386409E3,1.4726368E1,3.1270454E1,1.1026024E1,1.1127037E0,1.6926097E0,9.830575E0,8.301081E0,1.3922111E0,1.4806014E1,1.9435017E0,1.5018868E0,2.4352058E3,3.435129E0,4.3428745E0,1.0383493E1,1.0201694E0,3.0250286E1,3.0092323E0,8.016791E0,3.3628335E0,6.467742E0,1.8990265E0,6.4020543E0,1.377307E1,1.0329442E0],"tree_param":{"num_deleted":"0","num_feature":"78","num_nodes":"43","size_leaf_vector":"1"}},{"base_weights":[2.2478595E-3,3.6793663E-3,-2.3608172E-1,-3.8026755E-3,1.5227264E-1,-4.148277E-2,2.989057E-2,8.6795285E-2,8.441185E-1,8.333052E-2,-9.203455E-2,8.2879514E-1,2.3188872E-2,1.2916334E-1,-1.1042366E0,3.2418635E-1,1.802695E-1,3.0777058E-1,1.654174E-2,-3.1986853E-1,-6.0682237E-2,3.2246727E-1,-1.0929417E-1,5.581674E-3,2.9387465E-1,1.6234215E-1,-4.5391905E-1,-4.785004E-1,4.3771315E-2,-9.693438E-2,2.0581673E-1,1.2085839E-1,-8.13786E-2,-5.278561E-2,4.8704118E-2,-1.4827871E-1,3.2224044E-2,8.6876966E-2,-2.5268955E-2,-1.0410841E-1,5.2961253E-2,4.9957626E-2,-5.5633355E-3,6.2402364E-2,3.1073105E-1,1.6964254E-1,2.7132224E-2],"categories":[],"categories_nodes":[],"categories_segments":[],"categories_sizes":[],"default_left":[0,0,0,0,0,0,0,0,0,0,0,0,0,0,0,0,0,0,0,0,0,0,0,0,0,0,0,0,0,0,0,0,0,0,0,0,0,0,0,0,0,0,0,0,0,0,0],"id":29,"left_children":[1,3,-1,5,7,9,11,13,15,17,19,21,23,25,27,-1,29,31,33,35,37,-1,39,41,43,45,-1,-1,-1,-1,-1,-1,-1,-1,-1,-1,-1,-1,-1,-1,-1,-1,-1,-1,-1,-1,-1],"loss_changes":[2.8706992E0,2.8188252E0,0E0,3.0664122E0,5.4326954E0,7.201559E0,6.808158E0,5.8018975E0,1.4370666E0,4.9295626E0,5.7805696E0,2.5598102E0,6.0302706E0,6.195227E0,2.6605206E0,0E0,1.2223934E0,4.262991E0,7.1786976E0,7.354475E0,5.9216175E0,0E0,2.7234071E-1,4.6212025E0,4.707379E0,3.077396E0,0E0,0E0,0E0,0E0,0E0,0E0,0E0,0E0,0E0,0E0,0E0,0E0,0E0,0E0,0E0,0E0,0E0,0E0,0E0,0E0,0E0],"parents":[2147483647,0,0,1,1,3,3,4,4,5,5,6,6,7,7,8,8,9,9,10,10,11,11,12,12,13,13,14,14,16,16,17,17,18,18,19,19,20,20,22,22,23,23,24,24,25,25],"right_children":[2,4,-1,6,8,10,12,14,16,18,20,22,24,26,28,-1,30,32,34,36,38,-1,40,42,44,46,-1,-1,-1,-1,-1,-1,-1,-1,-1,-1,-1,-1,-1,-1,-1,-1,-1,-1,-1,-1,-1],"split_conditions":[1E0,1E0,-2.3608172E-1,3.894571E-1,6.0764873E-1,3.4323144E-1,3.9299765E-1,5.789154E-1,6.7887497E-1,1.4083399E-1,1.1861614E-1,1E0,1E0,1E0,5.720524E-1,3.2418635E-1,2.3589744E-1,5E-1,2.6923078E-1,1E0,1.2820514E-1,3.2246727E-1,2.897436E-1,1.3333334E-1,1E0,1.8676649E-1,-4.5391905E-1,-4.785004E-1,4.3771315E-2,-9.693438E-2,2.0581673E-1,1.2085839E-1,-8.13786E-2,-5.278561E-2,4.8704118E-2,-1.4827871E-1,3.2224044E-2,8.6876966E-2,-2.5268955E-2,-1.0410841E-1,5.2961253E-2,4.9957626E-2,-5.5633355E-3,6.2402364E-2,3.1073105E-1,1.6964254E-1,2.7132224E-2],"split_indices":[77,22,0,2,5,10,2,5,5,2,4,73,27,56,10,0,0,11,11,50,7,0,0,0,67,5,0,0,0,0,0,0,0,0,0,0,0,0,0,0,0,0,0,0,0,0,0],"split_type":[0,0,0,0,0,0,0,0,0,0,0,0,0,0,0,0,0,0,0,0,0,0,0,0,0,0,0,0,0,0,0,0,0,0,0,0,0,0,0,0,0,0,0,0,0,0,0],"sum_hessian":[2.537494E3,2.5338928E3,3.6008933E0,2.413349E3,1.2054373E2,1.1391617E3,1.2741874E3,1.111498E2,9.393935E0,3.2819467E2,8.109671E2,9.579279E0,1.2646082E3,1.08192665E2,2.957137E0,6.4634547E0,2.93048E0,7.443884E1,2.5375581E2,9.6984985E1,7.139821E2,7.4730024E0,2.1062768E0,1.1883318E3,7.627636E1,1.0693337E2,1.2592883E0,1.925422E0,1.0317152E0,1.6497395E0,1.2807405E0,6.419996E1,1.0238887E1,1.0927845E2,1.4447736E2,6.876288E1,2.8222107E1,4.42634E1,6.697187E2,1.033002E0,1.0732746E0,1.5414418E2,1.0341876E3,6.95115E1,6.7648664E0,1.5146454E1,9.178692E1],"tree_param":{"num_deleted":"0","num_feature":"78","num_nodes":"47","size_leaf_vector":"1"}},{"base_weights":[2.6282892E-3,4.0443237E-3,-2.3533987E-1,7.0206216E-3,-3.6093143E-1,5.699801E-3,2.3101334E-1,-1.3061419E-1,-1.19322E0,-1.2212527E-1,1.3539637E-2,-4.0312213E-1,7.38526E-1,-8.238907E-2,-5.0629896E-1,7.141304E-2,-2.704426E-1,1.2855962E-1,-2.2475E-3,-1.0110005E0,1.79033E-1,2.5944945E-1,4.9839772E-2,6.27598E-2,-1.1933621E-1,1.6685092E-1,-1.0730093E-1,6.62171E-2,-3.0992536E-2,-1.4225338E-1,3.4937283E-4,-1.03862084E-1,-6.183467E-1,-7.804483E-2,2.8540707E-1],"categories":[],"categories_nodes":[],"categories_segments":[],"categories_sizes":[],"default_left":[0,0,0,0,0,0,0,0,0,0,0,0,0,0,0,0,0,0,0,0,0,0,0,0,0,0,0,0,0,0,0,0,0,0,0],"id":30,"left_children":[1,3,-1,5,7,9,-1,11,13,15,17,19,21,-1,-1,23,25,27,29,31,33,-1,-1,-1,-1,-1,-1,-1,-1,-1,-1,-1,-1,-1,-1],"loss_changes":[2.8287246E0,2.7525363E0,0E0,2.5273392E0,3.7731545E0,2.5157466E0,0E0,4.3660355E0,1.4984708E0,4.1837425E0,4.294159E0,5.0375595E0,1.782732E-1,0E0,0E0,4.203573E0,6.136071E0,6.122002E0,3.3503306E0,4.078421E0,2.913455E0,0E0,0E0,0E0,0E0,0E0,0E0,0E0,0E0,0E0,0E0,0E0,0E0,0E0,0E0],"parents":[2147483647,0,0,1,1,3,3,4,4,5,5,7,7,8,8,9,9,10,10,11,11,12,12,15,15,16,16,17,17,18,18,19,19,20,20],"right_children":[2,4,-1,6,8,10,-1,12,14,16,18,20,22,-1,-1,24,26,28,30,32,34,-1,-1,-1,-1,-1,-1,-1,-1,-1,-1,-1,-1,-1,-1],"split_conditions":[1E0,1E0,-2.3533987E-1,1E0,5.2731687E-1,8.680542E-3,2.3101334E-1,3.9579117E-1,4.3784422E-1,1.1091703E-1,1.5384616E-1,4.433517E-1,2.948718E-1,-8.238907E-2,-5.0629896E-1,3.6764404E-1,6.7241377E-1,7.406114E-1,8.974359E-2,3.6664045E-1,1E0,2.5944945E-1,4.9839772E-2,6.27598E-2,-1.1933621E-1,1.6685092E-1,-1.0730093E-1,6.62171E-2,-3.0992536E-2,-1.4225338E-1,3.4937283E-4,-1.03862084E-1,-6.183467E-1,-7.804483E-2,2.8540707E-1],"split_indices":[76,57,0,69,5,9,0,5,2,10,7,2,11,0,0,3,6,10,11,2,63,0,0,0,0,0,0,0,0,0,0,0,0,0,0],"split_type":[0,0,0,0,0,0,0,0,0,0,0,0,0,0,0,0,0,0,0,0,0,0,0,0,0,0,0,0,0,0,0,0,0,0,0],"sum_hessian":[2.5341436E3,2.530586E3,3.5578277E0,2.511089E3,1.9496624E1,2.5077556E3,3.3335428E0,1.6176949E1,3.3196745E0,1.4407639E2,2.3636792E3,1.2723759E1,3.453191E0,1.7058793E0,1.6137952E0,6.273387E1,8.134251E1,2.844108E2,2.0792686E3,5.8639994E0,6.8597593E0,2.4104025E0,1.0427885E0,4.8921597E1,1.3812274E1,7.251091E0,7.4091415E1,2.0355058E2,8.086021E1,1.3934913E1,2.0653335E3,4.405071E0,1.4589283E0,4.79579E0,2.063969E0],"tree_param":{"num_deleted":"0","num_feature":"78","num_nodes":"35","size_leaf_vector":"1"}},{"base_weights":[1.8872841E-3,-1.0368604E-3,3.2463893E-1,3.944431E-3,-4.493014E-1,4.5400804E-1,-5.9131616E-1,-3.645852E-5,2.9646283E-1,-2.4834265E-1,-1.8761817E0,5.3740394E-1,-9.91463E-2,5.0151978E-2,-3.0367172E-1,-6.1462955E-3,1.8626788E-1,5.04699E-1,-5.134755E-1,-7.785663E-1,2.11963E-1,-1.8787797E-1,-7.001237E-1,-1.527444E-1,6.594648E-1,-1.5745403E-1,3.6163484E-3,2.6198503E-1,-8.568549E-1,-4.7396913E-2,8.6979294E-1,-1.0214499E0,3.5144532E-1,-1.6729568E-1,-1.4048721E0,-8.8774395E-1,5.1365715E-1,-2.5575557E-1,1.9961719E-1,3.34748E-1,8.988015E-2,-1.2162631E-1,2.1953806E-3,4.101897E-2,-5.2538537E-3,1.0484063E-1,-1.1215136E-1,-3.8962647E-1,5.9288133E-2,-1.5550804E-1,1.9066754E-1,2.8899986E-1,-3.7357166E-2,-3.9967772E-1,-3.8804186E-3,2.4888621E-1,-1.0351299E-1,-2.4400942E-1,1.8319225E-1,-2.8040469E-2,-5.6103414E-1,7.398724E-2,-5.4001576E-1,-2.3925327E-1,2.953398E-1,-7.7654675E-2,2.6709878E-1],"categories":[],"categories_nodes":[],"categories_segments":[],"categories_sizes":[],"default_left":[0,0,0,0,0,0,0,0,0,0,0,0,0,0,0,0,0,0,0,0,0,0,0,0,0,0,0,0,0,0,0,0,0,0,0,0,0,0,0,0,0,0,0,0,0,0,0,0,0,0,0,0,0,0,0,0,0,0,0,0,0,0,0,0,0,0,0],"id":31,"left_children":[1,3,5,7,9,11,13,15,17,19,21,23,-1,-1,-1,25,27,29,31,33,35,-1,-1,37,39,41,43,45,47,49,51,53,55,57,59,61,63,-1,-1,-1,65,-1,-1,-1,-1,-1,-1,-1,-1,-1,-1,-1,-1,-1,-1,-1,-1,-1,-1,-1,-1,-1,-1,-1,-1,-1,-1],"loss_changes":[2.3885424E0,5.6036854E0,2.961134E0,2.8904738E0,7.442665E0,1.517293E0,1.2057472E0,2.7897916E0,5.879977E0,6.346798E0,3.985281E-1,1.6920433E0,0E0,0E0,0E0,3.5059292E0,6.371174E0,5.4865656E0,3.5714064E0,4.3530526E0,5.2150197E0,0E0,0E0,2.657382E0,4.1209297E0,5.880575E0,6.2749577E0,4.2091637E0,2.8199306E0,4.0933137E0,1.6372185E0,1.5068841E0,1.4350339E0,4.1154523E0,3.35423E0,4.0190163E0,8.124675E0,0E0,0E0,0E0,2.5504563E0,0E0,0E0,0E0,0E0,0E0,0E0,0E0,0E0,0E0,0E0,0E0,0E0,0E0,0E0,0E0,0E0,0E0,0E0,0E0,0E0,0E0,0E0,0E0,0E0,0E0,0E0],"parents":[2147483647,0,0,1,1,2,2,3,3,4,4,5,5,6,6,7,7,8,8,9,9,10,10,11,11,15,15,16,16,17,17,18,18,19,19,20,20,23,23,24,24,25,25,26,26,27,27,28,28,29,29,30,30,31,31,32,32,33,33,34,34,35,35,36,36,40,40],"right_children":[2,4,6,8,10,12,14,16,18,20,22,24,-1,-1,-1,26,28,30,32,34,36,-1,-1,38,40,42,44,46,48,50,52,54,56,58,60,62,64,-1,-1,-1,66,-1,-1,-1,-1,-1,-1,-1,-1,-1,-1,-1,-1,-1,-1,-1,-1,-1,-1,-1,-1,-1,-1,-1,-1,-1,-1],"split_conditions":[7.9143286E-1,7.167259E-1,1E0,6.571011E-1,5.769231E-1,5.870093E-1,7.586207E-1,6.282051E-1,7.9661685E-1,3.2051283E-1,3.6573312E-1,3.4061137E-1,-9.91463E-2,5.0151978E-2,-3.0367172E-1,5.5172414E-1,1E0,1E0,8.103448E-1,4.5222405E-1,2.5354108E-1,-1.8787797E-1,-7.001237E-1,3.0769232E-1,4.9331236E-1,1E0,6.7241377E-1,6.483205E-1,5.3846157E-1,4.4177812E-1,5.641026E-1,1E0,4.5764193E-1,3.121911E-1,2.0512821E-1,3.4107003E-1,2.7419356E-1,-2.5575557E-1,1.9961719E-1,3.34748E-1,1E0,-1.2162631E-1,2.1953806E-3,4.101897E-2,-5.2538537E-3,1.0484063E-1,-1.1215136E-1,-3.8962647E-1,5.9288133E-2,-1.5550804E-1,1.9066754E-1,2.8899986E-1,-3.7357166E-2,-3.9967772E-1,-3.8804186E-3,2.4888621E-1,-1.0351299E-1,-2.4400942E-1,1.8319225E-1,-2.8040469E-2,-5.6103414E-1,7.398724E-2,-5.4001576E-1,-2.3925327E-1,2.953398E-1,-7.7654675E-2,2.6709878E-1],"split_indices":[3,3,8,3,11,5,6,11,2,11,4,10,0,0,0,6,34,49,6,4,5,0,0,11,2,51,6,5,7,2,7,44,10,4,7,2,2,0,0,0,30,0,0,0,0,0,0,0,0,0,0,0,0,0,0,0,0,0,0,0,0,0,0,0,0,0,0],"split_type":[0,0,0,0,0,0,0,0,0,0,0,0,0,0,0,0,0,0,0,0,0,0,0,0,0,0,0,0,0,0,0,0,0,0,0,0,0,0,0,0,0,0,0,0,0,0,0,0,0,0,0,0,0,0,0,0,0,0,0,0,0,0,0,0,0,0,0],"sum_hessian":[2.529489E3,2.5077651E3,2.172368E1,2.4811846E3,2.6580696E1,1.947708E1,2.2466009E0,2.448858E3,3.2326687E1,2.4328384E1,2.2523115E0,1.7890224E1,1.5868539E0,1.0169431E0,1.2296578E0,2.3720342E3,7.682367E1,2.6015053E1,6.3116355E0,1.0984261E1,1.3344124E1,1.2383121E0,1.0139995E0,2.6508095E0,1.5239416E1,1.4285452E2,2.2291797E3,7.232282E1,4.50085E0,1.0701857E1,1.5313195E1,3.8623016E0,2.4493337E0,6.200108E0,4.7841525E0,2.4545393E0,1.0889584E1,1.4061029E0,1.2447066E0,7.928186E0,7.3112297E0,5.6446754E1,8.6407776E1,3.0461835E2,1.9245613E3,6.3971294E1,8.351528E0,3.0084517E0,1.4923985E0,6.4766145E0,4.2252426E0,1.4024965E1,1.2882301E0,2.7070265E0,1.1552751E0,1.3389368E0,1.1103969E0,3.3622499E0,2.8378582E0,1.5672779E0,3.2168746E0,1.419365E0,1.0351743E0,2.6937554E0,8.195828E0,5.563861E0,1.7473688E0],"tree_param":{"num_deleted":"0","num_feature":"78","num_nodes":"67","size_leaf_vector":"1"}},{"base_weights":[1.3752748E-3,3.8096614E-2,-2.2922311E-2,5.1399374E-1,3.06173E-2,-9.510121E-2,1.6019918E-2,7.070729E-1,-1.9376709E-1,-5.276012E-1,3.51011E-2,-7.2548926E-2,-5.3575337E-1,-4.556644E-2,1.210595E-1,-1.934788E-1,2.779652E-1,1.8422192E-1,-2.6361954E-1,1.722981E-2,2.4360271E-1,2.5033188E-1,-1.088996E-1,1.3970692E-1,-9.8441666E-1,1.629564E-2,-2.627786E-1,1.4932288E-1,-2.8011692E-1,1.7429775E-1,-2.847375E-1,4.873578E-2,-9.533369E-2,1.4660653E-1,7.438813E-1,-5.095381E-1,3.4969172E-1,-1.6663609E0,-9.526931E-2,-6.932301E-1,4.6114525E-1,-1.2368249E0,3.407664E-1,3.7572827E-2,-5.350453E-1,-4.5651212E-1,7.0184125E-3,4.834927E-1,1.0182527E-1,-7.450906E-1,1.1328694E-2,-1.526686E-3,5.376454E-2,-5.9910264E-2,3.6026105E-2,1.5618367E-1,-1.7770207E-2,2.9304507E-1,5.6292586E-2,-3.4862304E-1,2.4457638E-1,1.2615608E-1,-1.2757805E-1,-5.542954E-2,-7.1479565E-1,-2.3532389E-2,-2.5724617E-1,-3.202132E-1,1.4845376E-2,3.0104274E-1,-7.9771206E-2,-1.3578E-1,-4.4939855E-1,2.1184812E-1,-6.167997E-2,2.6763728E-2,-4.065945E-2,1.419197E-1,-2.4785112E-1,-3.3517063E-1,-8.542382E-2,9.207572E-2,-1.0360504E-1,1.6502607E-1,-2.0884362E-1,-1.6000196E-1,3.649709E-2,-1.10491045E-1,-4.8453048E-1,-1.0142955E-1,1.8505558E-1],"categories":[],"categories_nodes":[],"categories_segments":[],"categories_sizes":[],"default_left":[0,0,0,0,0,0,0,0,0,0,0,0,0,0,0,0,0,0,0,0,0,0,0,0,0,0,0,0,0,0,0,0,0,0,0,0,0,0,0,0,0,0,0,0,0,0,0,0,0,0,0,0,0,0,0,0,0,0,0,0,0,0,0,0,0,0,0,0,0,0,0,0,0,0,0,0,0,0,0,0,0,0,0,0,0,0,0,0,0,0,0],"id":32,"left_children":[1,3,5,7,9,11,13,15,17,-1,19,21,23,25,27,29,-1,-1,-1,31,33,35,37,39,41,43,45,47,49,-1,-1,51,53,55,57,59,61,63,65,67,69,71,73,75,77,79,81,83,85,87,89,-1,-1,-1,-1,-1,-1,-1,-1,-1,-1,-1,-1,-1,-1,-1,-1,-1,-1,-1,-1,-1,-1,-1,-1,-1,-1,-1,-1,-1,-1,-1,-1,-1,-1,-1,-1,-1,-1,-1,-1],"loss_changes":[2.2552514E0,3.5667167E0,4.2772355E0,2.2565107E0,8.020129E0,5.260271E0,6.4029307E0,2.6302996E0,2.8133986E0,0E0,3.6864948E0,5.994672E0,7.9579325E0,8.390997E0,4.189394E0,2.4576812E0,0E0,0E0,0E0,3.2437868E0,3.681625E0,4.0854287E0,9.557154E0,3.3117034E0,5.6495295E0,5.729931E0,7.2377787E0,5.3849487E0,3.3179932E0,0E0,0E0,5.017301E0,4.522262E0,5.1640215E0,1.4286294E0,6.4726205E0,2.7234616E0,3.7093134E0,5.765883E0,1.0285367E0,3.6830378E0,2.0553513E0,8.009498E-1,4.2096763E0,5.718025E0,8.826553E0,6.3233194E0,3.7090673E0,3.8567688E0,2.4946637E0,3.5933847E0,0E0,0E0,0E0,0E0,0E0,0E0,0E0,0E0,0E0,0E0,0E0,0E0,0E0,0E0,0E0,0E0,0E0,0E0,0E0,0E0,0E0,0E0,0E0,0E0,0E0,0E0,0E0,0E0,0E0,0E0,0E0,0E0,0E0,0E0,0E0,0E0,0E0,0E0,0E0,0E0],"parents":[2147483647,0,0,1,1,2,2,3,3,4,4,5,5,6,6,7,7,8,8,10,10,11,11,12,12,13,13,14,14,15,15,19,19,20,20,21,21,22,22,23,23,24,24,25,25,26,26,27,27,28,28,31,31,32,32,33,33,34,34,35,35,36,36,37,37,38,38,39,39,40,40,41,41,42,42,43,43,44,44,45,45,46,46,47,47,48,48,49,49,50,50],"right_children":[2,4,6,8,10,12,14,16,18,-1,20,22,24,26,28,30,-1,-1,-1,32,34,36,38,40,42,44,46,48,50,-1,-1,52,54,56,58,60,62,64,66,68,70,72,74,76,78,80,82,84,86,88,90,-1,-1,-1,-1,-1,-1,-1,-1,-1,-1,-1,-1,-1,-1,-1,-1,-1,-1,-1,-1,-1,-1,-1,-1,-1,-1,-1,-1,-1,-1,-1,-1,-1,-1,-1,-1,-1,-1,-1,-1],"split_conditions":[2.3076923E-1,7.0810385E-2,1E0,3.1462726E-1,7.631786E-2,1E0,4.4230768E-1,1.3920923E-1,2.6923078E-1,-5.276012E-1,3.7179488E-1,9.302341E-2,1.7792422E-1,2.8648847E-1,1E0,1.0749588E-1,2.779652E-1,1.8422192E-1,-2.6361954E-1,5.200629E-1,1E0,1.7948718E-1,9.61647E-2,2.3076923E-1,5.318647E-1,1E0,4.619587E-1,2.519223E-1,5.153846E-1,1.7429775E-1,-2.847375E-1,4.0519276E-1,4.8511274E-2,2.2248413E-2,3.7179488E-1,4.433517E-1,1E0,3.498765E-2,1E0,4.087414E-1,3.5897437E-1,1E0,3.2051283E-1,1E0,2.3776961E-2,3.1359363E-2,1E0,8.7644154E-1,1.6157205E-1,3.7397036E-1,7.293183E-2,-1.526686E-3,5.376454E-2,-5.9910264E-2,3.6026105E-2,1.5618367E-1,-1.7770207E-2,2.9304507E-1,5.6292586E-2,-3.4862304E-1,2.4457638E-1,1.2615608E-1,-1.2757805E-1,-5.542954E-2,-7.1479565E-1,-2.3532389E-2,-2.5724617E-1,-3.202132E-1,1.4845376E-2,3.0104274E-1,-7.9771206E-2,-1.3578E-1,-4.4939855E-1,2.1184812E-1,-6.167997E-2,2.6763728E-2,-4.065945E-2,1.419197E-1,-2.4785112E-1,-3.3517063E-1,-8.542382E-2,9.207572E-2,-1.0360504E-1,1.6502607E-1,-2.0884362E-1,-1.6000196E-1,3.649709E-2,-1.10491045E-1,-4.8453048E-1,-1.0142955E-1,1.8505558E-1],"split_indices":[7,2,51,3,2,30,0,4,11,0,11,3,4,3,13,4,0,0,0,2,50,11,3,11,2,19,5,5,0,0,0,2,9,9,0,2,1,9,34,5,7,12,11,73,9,9,49,4,10,4,9,0,0,0,0,0,0,0,0,0,0,0,0,0,0,0,0,0,0,0,0,0,0,0,0,0,0,0,0,0,0,0,0,0,0,0,0,0,0,0,0],"split_type":[0,0,0,0,0,0,0,0,0,0,0,0,0,0,0,0,0,0,0,0,0,0,0,0,0,0,0,0,0,0,0,0,0,0,0,0,0,0,0,0,0,0,0,0,0,0,0,0,0,0,0,0,0,0,0,0,0,0,0,0,0,0,0,0,0,0,0,0,0,0,0,0,0,0,0,0,0,0,0,0,0,0,0,0,0,0,0,0,0,0,0],"sum_hessian":[2.5256501E3,1.00548157E3,1.5201687E3,1.451001E1,9.9097156E2,5.322354E2,9.879332E2,1.1400808E1,3.1092012E0,1.4991498E0,9.894724E2,5.074301E2,2.4805288E1,6.2314166E2,3.6479156E2,2.257282E0,9.143527E0,1.4741275E0,1.6350737E0,9.1235443E2,7.711797E1,5.0751244E1,